3961 11
3.0000 10.3000 0.1700 0.4700 1.4000 0.0370 5.0000 33.0000 0.9939 2.8900 0.2800 9.6000
3.0000 11.8000 0.2300 0.3800 11.1000 0.0340 15.0000 123.0000 0.9997 2.9300 0.5500 9.7000
3.0000 4.2000 0.2150 0.2300 5.1000 0.0410 64.0000 157.0000 0.9969 3.4200 0.4400 8.0000
3.0000 5.8000 0.2400 0.4400 3.5000 0.0290 5.0000 109.0000 0.9913 3.5300 0.4300 11.7000
3.0000 6.1000 0.2000 0.3400 9.5000 0.0410 38.0000 201.0000 0.9950 3.1400 0.4400 10.1000
3.0000 6.1000 0.2600 0.2500 2.9000 0.0470 289.0000 440.0000 0.9931 3.4400 0.6400 10.5000
3.0000 6.2000 0.2300 0.3500 0.7000 0.0510 24.0000 111.0000 0.9916 3.3700 0.4300 11.0000
3.0000 6.7000 0.2500 0.2600 1.5500 0.0410 118.5000 216.0000 0.9949 3.5500 0.6300 9.4000
3.0000 6.8000 0.2600 0.3400 15.1000 0.0600 42.0000 162.0000 0.9970 3.2400 0.5200 10.5000
3.0000 6.9000 0.3900 0.4000 4.6000 0.0220 5.0000 19.0000 0.9915 3.3100 0.3700 12.6000
3.0000 7.1000 0.3200 0.3200 11.0000 0.0380 16.0000 66.0000 0.9937 3.2400 0.4000 11.5000
3.0000 7.1000 0.4900 0.2200 2.0000 0.0470 146.5000 307.5000 0.9924 3.2400 0.3700 11.0000
3.0000 7.5000 0.3200 0.2400 4.6000 0.0530 8.0000 134.0000 0.9958 3.1400 0.5000 9.1000
3.0000 7.6000 0.4800 0.3700 1.2000 0.0340 5.0000 57.0000 0.9926 3.0500 0.5400 10.4000
3.0000 7.9000 0.6400 0.4600 10.6000 0.2440 33.0000 227.0000 0.9983 2.8700 0.7400 9.1000
3.0000 8.3000 0.3300 0.4200 1.1500 0.0330 18.0000 96.0000 0.9911 3.2000 0.3200 12.4000
3.0000 8.5000 0.2600 0.2100 16.2000 0.0740 41.0000 197.0000 0.9980 3.0200 0.5000 9.8000
3.0000 8.6000 0.5500 0.3500 15.5500 0.0570 35.5000 366.5000 1.0001 3.0400 0.6300 11.0000
3.0000 9.1000 0.5900 0.3800 1.6000 0.0660 34.0000 182.0000 0.9968 3.2300 0.3800 8.5000
3.0000 9.4000 0.2400 0.2900 8.5000 0.0370 124.0000 208.0000 0.9940 2.9000 0.3800 11.0000
4.0000 10.0000 0.9100 0.4200 1.6000 0.0560 34.0000 181.0000 0.9968 3.1100 0.4600 10.0000
4.0000 10.2000 0.4400 0.8800 6.2000 0.0490 20.0000 124.0000 0.9968 2.9900 0.5100 9.9000
4.0000 4.8000 0.6500 0.1200 1.1000 0.0130 4.0000 10.0000 0.9925 3.3200 0.3600 13.5000
4.0000 5.2000 0.4050 0.1500 1.4500 0.0380 10.0000 44.0000 0.9912 3.5200 0.4000 11.6000
4.0000 5.3000 0.3000 0.2000 1.1000 0.0770 48.0000 166.0000 0.9944 3.3000 0.5400 8.7000
4.0000 5.3000 0.4300 0.1100 1.1000 0.0290 6.0000 51.0000 0.9908 3.5100 0.4800 11.2000
4.0000 5.3000 0.4700 0.1000 1.3000 0.0360 11.0000 74.0000 0.9908 3.4800 0.5400 11.2000
4.0000 5.5000 0.4850 0.0000 1.5000 0.0650 8.0000 103.0000 0.9940 3.6300 0.4000 9.7000
4.0000 5.6000 0.1800 0.2900 2.3000 0.0400 5.0000 47.0000 0.9913 3.0700 0.4500 10.1000
4.0000 5.8000 0.2600 0.3000 2.6000 0.0340 75.0000 129.0000 0.9902 3.2000 0.3800 11.5000
4.0000 5.8000 0.2800 0.1800 1.2000 0.0580 7.0000 108.0000 0.9929 3.2300 0.5800 9.5500
4.0000 5.8000 0.2800 0.3500 2.3000 0.0530 36.0000 114.0000 0.9924 3.2800 0.5000 10.2000
4.0000 5.8000 0.3600 0.3800 0.9000 0.0370 3.0000 75.0000 0.9904 3.2800 0.3400 11.4000
4.0000 5.9000 0.2100 0.2800 4.6000 0.0530 40.0000 199.0000 0.9964 3.7200 0.7000 10.0000
4.0000 5.9000 0.6550 0.0000 5.6000 0.0330 8.0000 31.0000 0.9936 3.3200 0.5100 10.5000
4.0000 6.0000 0.1100 0.4700 10.6000 0.0520 69.0000 148.0000 0.9958 2.9100 0.3400 9.3000
4.0000 6.0000 0.3300 0.1800 3.0000 0.0360 5.0000 85.0000 0.9912 3.2800 0.4000 11.5000
4.0000 6.0000 0.3500 0.4600 0.9000 0.0330 9.0000 65.0000 0.9893 3.2400 0.3500 12.1000
4.0000 6.0000 0.3950 0.0000 1.4000 0.0420 7.0000 55.0000 0.9913 3.3700 0.3800 11.2000
4.0000 6.0000 0.5900 0.0000 0.8000 0.0370 30.0000 95.0000 0.9903 3.1000 0.4000 10.9000
4.0000 6.0000 0.6150 0.0400 0.8000 0.0320 8.0000 50.0000 0.9904 3.1400 0.4000 11.0000
4.0000 6.0000 0.6700 0.0700 1.2000 0.0600 9.0000 108.0000 0.9931 3.1100 0.3500 8.7000
4.0000 6.1000 0.2800 0.2500 12.9000 0.0540 34.0000 189.0000 0.9979 3.2500 0.4300 9.0000
4.0000 6.1000 0.3200 0.3700 1.8000 0.0510 13.0000 200.0000 0.9945 3.4900 0.4400 10.5000
4.0000 6.1000 0.3800 0.1400 3.9000 0.0600 27.0000 113.0000 0.9934 3.0700 0.3400 9.2000
4.0000 6.1000 0.6000 0.0000 1.3000 0.0420 24.0000 79.0000 0.9937 3.3100 0.3800 9.4000
4.0000 6.1000 0.6000 0.1200 1.8000 0.0500 11.0000 76.0000 0.9927 3.4200 0.4800 10.4000
4.0000 6.1000 1.1000 0.1600 4.4000 0.0330 8.0000 109.0000 0.9906 3.3500 0.4700 12.4000
4.0000 6.2000 0.2550 0.2400 1.7000 0.0390 138.5000 272.0000 0.9945 3.5300 0.5300 9.6000
4.0000 6.2000 0.3800 0.1800 7.4000 0.0950 28.0000 195.0000 0.9977 3.5300 0.7100 9.2000
4.0000 6.2000 0.4300 0.4900 6.4000 0.0450 12.0000 115.0000 0.9963 3.2700 0.5700 9.0000
4.0000 6.2000 0.4500 0.2600 4.4000 0.0630 63.0000 206.0000 0.9940 3.2700 0.5200 9.8000
4.0000 6.2000 0.5300 0.0200 0.9000 0.0350 6.0000 81.0000 0.9923 3.2400 0.3500 9.5000
4.0000 6.3000 0.2400 0.3700 1.8000 0.0310 6.0000 61.0000 0.9897 3.3000 0.3400 12.2000
4.0000 6.3000 0.2700 0.5100 7.6000 0.0490 35.0000 200.0000 0.9955 3.1600 0.5400 9.4000
4.0000 6.3000 0.2800 0.2200 9.5000 0.0400 30.0000 111.0000 0.9934 3.0500 0.3100 10.8000
4.0000 6.3000 0.3800 0.1700 8.8000 0.0800 50.0000 212.0000 0.9980 3.4700 0.6600 9.4000
4.0000 6.3000 0.3900 0.2400 6.9000 0.0690 9.0000 117.0000 0.9942 3.1500 0.3500 10.2000
4.0000 6.3000 0.6000 0.4400 11.0000 0.0500 50.0000 245.0000 0.9972 3.1900 0.5700 9.3000
4.0000 6.4000 0.2700 0.1900 1.9000 0.0850 21.0000 196.0000 0.9952 3.4900 0.6400 9.5000
4.0000 6.4000 0.2700 0.1900 2.0000 0.0840 21.0000 191.0000 0.9952 3.4900 0.6300 9.6000
4.0000 6.4000 0.3400 0.2000 14.9000 0.0600 37.0000 162.0000 0.9983 3.1300 0.4500 9.0000
4.0000 6.4000 0.3500 0.3500 5.6000 0.0340 9.0000 148.0000 0.9944 3.1700 0.5000 9.8000
4.0000 6.4000 0.3700 0.1200 5.9000 0.0560 6.0000 91.0000 0.9954 3.0600 0.4600 8.4000
4.0000 6.4000 0.4300 0.2700 1.1000 0.0540 5.0000 110.0000 0.9939 3.2400 0.5200 9.1000
4.0000 6.4000 0.5950 0.1400 5.2000 0.0580 15.0000 97.0000 0.9951 3.3800 0.3600 9.0000
4.0000 6.5000 0.2700 0.1900 4.2000 0.0460 6.0000 114.0000 0.9955 3.2500 0.3500 8.6000
4.0000 6.5000 0.2800 0.2800 8.5000 0.0470 54.0000 210.0000 0.9962 3.0900 0.5400 8.9000
4.0000 6.5000 0.2800 0.3500 9.8000 0.0670 61.0000 180.0000 0.9972 3.1500 0.5700 9.0000
4.0000 6.5000 0.2900 0.2500 2.5000 0.1420 8.0000 111.0000 0.9927 3.0000 0.4400 9.9000
4.0000 6.5000 0.3200 0.4800 8.0000 0.0260 18.0000 88.0000 0.9914 3.2200 0.7900 12.7000
4.0000 6.5000 0.3300 0.7200 1.1000 0.0610 7.0000 151.0000 0.9930 3.0900 0.5700 9.5000
4.0000 6.5000 0.3800 0.5300 1.4000 0.1420 5.0000 69.0000 0.9926 3.1400 0.5200 10.1000
4.0000 6.5000 0.4800 0.0200 0.9000 0.0430 32.0000 99.0000 0.9923 3.1400 0.4700 9.8000
4.0000 6.5000 0.5200 0.1700 1.4000 0.0470 5.0000 26.0000 0.9932 3.2600 0.3200 10.0000
4.0000 6.6000 0.3100 0.3700 6.2000 0.0520 13.0000 164.0000 0.9960 3.2400 0.3900 8.8000
4.0000 6.6000 0.3500 0.1900 10.5000 0.0600 15.0000 82.0000 0.9959 3.1300 0.3800 9.9000
4.0000 6.6000 0.3800 0.1800 1.2000 0.0420 20.0000 84.0000 0.9927 3.2200 0.4500 10.1000
4.0000 6.7000 0.2200 0.2200 1.2000 0.0380 5.0000 124.0000 0.9910 3.1000 0.3700 11.2000
4.0000 6.7000 0.3100 0.3100 9.9000 0.0400 10.0000 175.0000 0.9953 3.4600 0.5500 11.4000
4.0000 6.7000 0.5400 0.2700 7.1000 0.0490 8.0000 178.0000 0.9950 3.1600 0.3800 9.4000
4.0000 6.7000 0.6400 0.3000 1.2000 0.0300 18.0000 76.0000 0.9892 3.1600 0.6000 12.9000
4.0000 6.8000 0.2000 0.2700 1.2000 0.0340 19.0000 68.0000 0.9902 3.1400 0.3700 11.7000
4.0000 6.8000 0.2700 0.2900 4.6000 0.0460 6.0000 88.0000 0.9946 3.3400 0.4800 10.6000
4.0000 6.8000 0.2900 0.1600 1.4000 0.0380 122.5000 234.5000 0.9922 3.1500 0.4700 10.0000
4.0000 6.8000 0.3200 0.3400 1.2000 0.0440 14.0000 67.0000 0.9919 3.0500 0.4700 10.6000
4.0000 6.8000 0.4400 0.3700 5.1000 0.0470 46.0000 201.0000 0.9938 3.0800 0.6500 10.5000
4.0000 6.8000 0.6300 0.0400 1.3000 0.0580 25.0000 133.0000 0.9927 3.1700 0.3900 10.2000
4.0000 6.8000 0.6400 0.0800 9.7000 0.0620 26.0000 142.0000 0.9972 3.3700 0.4600 8.9000
4.0000 6.8000 0.6700 0.3000 13.0000 0.2900 22.0000 193.0000 0.9984 3.0800 0.6700 9.0000
4.0000 6.8000 0.7050 0.2500 3.2000 0.0480 10.0000 57.0000 0.9960 3.3600 0.5200 9.5000
4.0000 6.8000 0.7300 0.2000 6.6000 0.0540 25.0000 65.0000 0.9932 3.1200 0.2800 11.1000
4.0000 6.9000 0.1900 0.6000 4.0000 0.0370 6.0000 122.0000 0.9926 2.9200 0.5900 10.4000
4.0000 6.9000 0.2000 0.3400 1.9000 0.0430 25.0000 136.0000 0.9935 3.3100 0.6000 10.1000
4.0000 6.9000 0.2500 0.2400 3.6000 0.0570 13.0000 85.0000 0.9942 2.9900 0.4800 9.5000
4.0000 6.9000 0.2600 0.4900 1.6000 0.0580 39.0000 166.0000 0.9965 3.6500 0.5200 9.4000
4.0000 6.9000 0.3000 0.2900 1.3000 0.0530 24.0000 189.0000 0.9936 3.2900 0.5400 9.9000
4.0000 6.9000 0.3000 0.3000 1.3000 0.0530 24.0000 186.0000 0.9936 3.2900 0.5400 9.9000
4.0000 6.9000 0.3000 0.3600 4.5000 0.0540 31.0000 203.0000 0.9951 3.4000 0.5700 10.4000
4.0000 6.9000 0.3200 0.1600 1.4000 0.0510 15.0000 96.0000 0.9940 3.2200 0.3800 9.5000
4.0000 6.9000 0.3900 0.2200 4.3000 0.0300 10.0000 102.0000 0.9930 3.0000 0.8700 11.6000
4.0000 6.9000 0.4100 0.2200 4.2000 0.0310 10.0000 102.0000 0.9930 3.0000 0.8600 11.6000
4.0000 6.9000 0.7500 0.1300 6.3000 0.0360 19.0000 50.0000 0.9931 3.0900 0.2500 11.1000
4.0000 7.0000 0.2400 0.1800 1.3000 0.0460 9.0000 62.0000 0.9940 3.3800 0.4700 10.1000
4.0000 7.0000 0.3900 0.2400 1.0000 0.0480 8.0000 119.0000 0.9923 3.0000 0.3100 10.1000
4.0000 7.0000 0.5700 0.1000 8.3000 0.0940 23.0000 188.0000 0.9972 3.4000 0.4700 9.2000
4.0000 7.0000 0.6100 0.2600 1.7000 0.0510 25.0000 161.0000 0.9946 3.3600 0.6000 10.6000
4.0000 7.1000 0.2100 0.2800 2.7000 0.0340 23.0000 111.0000 0.9940 3.3500 0.6400 10.2000
4.0000 7.1000 0.2300 0.2400 5.4000 0.0390 60.0000 196.0000 0.9948 3.1900 0.7800 10.0000
4.0000 7.1000 0.2400 0.3400 1.2000 0.0450 6.0000 132.0000 0.9913 3.1600 0.4600 11.2000
4.0000 7.1000 0.2700 0.2800 1.2500 0.0230 3.0000 89.0000 0.9899 2.9500 0.3000 11.4000
4.0000 7.1000 0.5300 0.2400 0.8000 0.0290 29.0000 86.0000 0.9930 3.1600 0.3200 9.1000
4.0000 7.1000 0.6400 0.4900 1.8000 0.0500 17.0000 128.0000 0.9946 3.3100 0.5800 10.6000
4.0000 7.2000 0.3100 0.4600 5.0000 0.0400 3.0000 29.0000 0.9906 3.0400 0.5300 12.5000
4.0000 7.2000 0.3200 0.4700 5.1000 0.0440 19.0000 65.0000 0.9910 3.0300 0.4100 12.6000
4.0000 7.2000 0.4000 0.6200 10.8000 0.0410 70.0000 189.0000 0.9976 3.0800 0.4900 8.6000
4.0000 7.2000 0.5000 0.0000 0.8000 0.0340 46.0000 114.0000 0.9932 3.1900 0.3400 9.2000
4.0000 7.2000 0.5500 0.0900 1.5000 0.1080 16.0000 151.0000 0.9938 3.0700 0.5700 9.2000
4.0000 7.2000 0.6150 0.1000 1.4000 0.0680 25.0000 154.0000 0.9950 3.2000 0.4800 9.7000
4.0000 7.3000 0.2800 0.4200 1.2000 0.0330 29.0000 142.0000 0.9920 3.1700 0.4300 10.7000
4.0000 7.3000 0.3600 0.5400 13.3000 0.0540 63.0000 193.0000 0.9986 3.0600 0.4900 8.6000
4.0000 7.3000 0.3800 0.2300 6.5000 0.0500 18.0000 102.0000 0.9930 3.1000 0.5500 11.2000
4.0000 7.3000 0.4900 0.3200 5.2000 0.0430 18.0000 104.0000 0.9952 3.2400 0.4500 10.7000
4.0000 7.4000 0.1700 0.4000 5.5000 0.0370 34.0000 161.0000 0.9935 3.0500 0.6200 11.5000
4.0000 7.4000 0.2700 0.3100 2.4000 0.0140 15.0000 143.0000 0.9909 3.0300 0.6500 12.0000
4.0000 7.4000 0.2800 0.4000 11.9000 0.0320 13.0000 92.0000 0.9963 3.0100 0.4600 10.8000
4.0000 7.4000 0.4500 0.3200 7.1000 0.0440 17.0000 117.0000 0.9962 3.3200 0.4100 10.4000
4.0000 7.5000 0.2600 0.5900 11.8000 0.0460 58.0000 164.0000 0.9981 3.1700 0.4600 8.9000
4.0000 7.5000 0.2900 0.2600 14.9500 0.0670 47.0000 178.0000 0.9984 3.0400 0.4900 9.2000
4.0000 7.5000 0.3400 0.2400 3.8500 0.0310 5.0000 34.0000 0.9910 3.0100 0.3600 11.8000
4.0000 7.6000 0.2100 0.3500 1.2000 0.0410 7.0000 106.0000 0.9914 3.0600 0.4500 11.3000
4.0000 7.6000 0.2300 0.2600 15.3000 0.0670 32.0000 166.0000 0.9986 3.0300 0.4400 9.2000
4.0000 7.6000 0.2600 0.3600 1.6000 0.0320 6.0000 106.0000 0.9930 3.1500 0.4000 10.4000
4.0000 7.6000 0.3100 0.2300 12.7000 0.0540 20.0000 139.0000 0.9984 3.1600 0.5000 9.7000
4.0000 7.6000 0.3100 0.4900 13.4000 0.0620 50.0000 191.0000 0.9989 3.2200 0.5300 9.0000
4.0000 7.6000 0.3300 0.3600 2.1000 0.0340 26.0000 172.0000 0.9944 3.4200 0.4800 10.5000
4.0000 7.6000 0.4800 0.3700 0.8000 0.0370 4.0000 100.0000 0.9902 3.0300 0.3900 11.4000
4.0000 7.6000 0.5600 0.1200 10.4000 0.0960 22.0000 177.0000 0.9983 3.3200 0.4500 9.1000
4.0000 7.7000 0.2800 0.6300 11.1000 0.0390 58.0000 179.0000 0.9979 3.0800 0.4400 8.8000
4.0000 7.9000 0.1600 0.3000 4.8000 0.0370 37.0000 171.0000 0.9967 3.4700 0.4400 9.0000
4.0000 7.9000 0.2800 0.3200 3.6000 0.0380 9.0000 76.0000 0.9920 3.0500 0.3100 11.7000
4.0000 8.0000 0.1600 0.3600 1.5000 0.0330 14.0000 122.0000 0.9941 3.2000 0.3900 10.3000
4.0000 8.0000 0.2300 0.3700 9.6000 0.0540 23.0000 159.0000 0.9980 3.3200 0.4700 9.8000
4.0000 8.0000 0.3200 0.2600 1.2000 0.0500 11.5000 88.0000 0.9946 3.2400 0.3700 9.5000
4.0000 8.0000 0.5500 0.1700 8.2000 0.0400 13.0000 60.0000 0.9956 3.0900 0.3000 9.5000
4.0000 8.0000 0.6600 0.7200 17.5500 0.0420 62.0000 233.0000 0.9999 2.9200 0.6800 9.4000
4.0000 8.1000 0.2800 0.4600 15.4000 0.0590 32.0000 177.0000 1.0004 3.2700 0.5800 9.0000
4.0000 8.2000 0.2600 0.4400 1.3000 0.0460 7.0000 69.0000 0.9944 3.1400 0.6200 10.2000
4.0000 8.2000 0.2900 0.4900 1.0000 0.0440 29.0000 118.0000 0.9928 3.2400 0.3600 10.9000
4.0000 8.2000 0.6800 0.3000 2.1000 0.0470 17.0000 138.0000 0.9950 3.2200 0.7100 10.8000
4.0000 8.3000 0.2700 0.4500 1.3000 0.0480 8.0000 72.0000 0.9944 3.0800 0.6100 10.3000
4.0000 8.4000 0.1900 0.4200 1.6000 0.0470 9.0000 101.0000 0.9940 3.0600 0.6500 11.1000
4.0000 8.4000 0.2900 0.2900 1.0500 0.0320 4.0000 55.0000 0.9908 2.9100 0.3200 11.4000
4.0000 8.5000 0.1700 0.4900 8.8000 0.0480 23.0000 108.0000 0.9947 2.8800 0.3400 10.5000
4.0000 8.5000 0.1800 0.3000 1.1000 0.0280 34.0000 95.0000 0.9927 2.8300 0.3600 10.0000
4.0000 8.5000 0.2000 0.4000 1.1000 0.0460 31.0000 106.0000 0.9919 3.0000 0.3500 10.5000
4.0000 8.5000 0.2200 0.3400 0.7000 0.0400 5.0000 25.0000 0.9918 3.0400 0.3700 10.5000
4.0000 8.6000 0.3400 0.3600 1.4000 0.0450 11.0000 119.0000 0.9956 3.1700 0.4700 9.4000
4.0000 8.7000 0.3000 0.5900 1.7000 0.0460 10.0000 70.0000 0.9937 3.0600 0.5600 10.8000
4.0000 8.7000 0.3100 0.2100 5.6000 0.0390 28.0000 67.0000 0.9933 2.9600 0.5200 11.0000
4.0000 8.8000 0.3500 0.4900 1.0000 0.0360 14.0000 56.0000 0.9920 2.9600 0.3300 10.5000
4.0000 9.0000 0.4300 0.3000 1.5000 0.0500 7.0000 175.0000 0.9951 3.1100 0.4500 9.7000
4.0000 9.2000 0.1600 0.4900 2.0000 0.0440 18.0000 107.0000 0.9951 3.1000 0.5300 10.2000
4.0000 9.2000 0.1900 0.4200 2.0000 0.0470 16.0000 104.0000 0.9952 3.0900 0.6600 10.0000
4.0000 9.2000 0.2200 0.4000 2.4000 0.0540 18.0000 151.0000 0.9952 3.0400 0.4600 9.3000
4.0000 9.2000 0.2800 0.4900 11.8000 0.0420 29.0000 137.0000 0.9980 3.1000 0.3400 10.1000
4.0000 9.2000 0.3500 0.3900 0.9000 0.0420 15.0000 61.0000 0.9924 2.9600 0.2800 10.4000
4.0000 9.3000 0.2000 0.3300 1.7000 0.0500 28.0000 178.0000 0.9954 3.1600 0.4300 9.0000
4.0000 9.4000 0.2900 0.5500 2.2000 0.0500 17.0000 119.0000 0.9962 3.1200 0.6900 10.3000
4.0000 9.8000 0.2500 0.7400 10.0000 0.0560 36.0000 225.0000 0.9977 3.0600 0.4300 10.0000
4.0000 9.8000 0.3600 0.4600 10.5000 0.0380 4.0000 83.0000 0.9956 2.8900 0.3000 10.1000
4.0000 9.8000 0.9300 0.4500 8.6000 0.0520 34.0000 187.0000 0.9994 3.1200 0.5900 10.2000
4.0000 9.9000 1.0050 0.4600 1.4000 0.0460 34.0000 185.0000 0.9966 3.0200 0.4900 10.2000
5.0000 10.3000 0.2500 0.4800 2.2000 0.0420 28.0000 164.0000 0.9980 3.1900 0.5900 9.7000
5.0000 4.5000 0.1900 0.2100 0.9500 0.0330 89.0000 159.0000 0.9933 3.3400 0.4200 8.0000
5.0000 4.6000 0.4450 0.0000 1.4000 0.0530 11.0000 178.0000 0.9943 3.7900 0.5500 10.2000
5.0000 4.7000 0.3350 0.1400 1.3000 0.0360 69.0000 168.0000 0.9921 3.4700 0.4600 10.5000
5.0000 4.7000 0.6700 0.0900 1.0000 0.0200 5.0000 9.0000 0.9872 3.3000 0.3400 13.6000
5.0000 4.8000 0.3300 0.0000 6.5000 0.0280 34.0000 163.0000 0.9937 3.3500 0.6100 9.9000
5.0000 4.9000 0.3350 0.1400 1.3000 0.0360 69.0000 168.0000 0.9921 3.4700 0.4600 10.4667
5.0000 4.9000 0.3450 0.3400 1.0000 0.0680 32.0000 143.0000 0.9914 3.2400 0.4000 10.1000
5.0000 5.0000 0.2400 0.1900 5.0000 0.0430 17.0000 101.0000 0.9944 3.6700 0.5700 10.0000
5.0000 5.0000 0.6100 0.1200 1.3000 0.0090 65.0000 100.0000 0.9874 3.2600 0.3700 13.5000
5.0000 5.1000 0.2100 0.2800 1.4000 0.0470 48.0000 148.0000 0.9917 3.5000 0.4900 10.4000
5.0000 5.1000 0.2300 0.1800 1.0000 0.0530 13.0000 99.0000 0.9896 3.2200 0.3900 11.5000
5.0000 5.1000 0.3050 0.1300 1.7500 0.0360 17.0000 73.0000 0.9900 3.4000 0.5100 12.3333
5.0000 5.1000 0.5200 0.0600 2.7000 0.0520 30.0000 79.0000 0.9932 3.3200 0.4300 9.3000
5.0000 5.2000 0.1700 0.2700 0.7000 0.0300 11.0000 68.0000 0.9922 3.3000 0.4100 9.8000
5.0000 5.2000 0.2200 0.4600 6.2000 0.0660 41.0000 187.0000 0.9936 3.1900 0.4200 9.7333
5.0000 5.2000 0.2500 0.2300 1.4000 0.0470 20.0000 77.0000 0.9900 3.3200 0.6200 11.4000
5.0000 5.2000 0.6000 0.0700 7.0000 0.0440 33.0000 147.0000 0.9944 3.3300 0.5800 9.7000
5.0000 5.3000 0.1650 0.2400 1.1000 0.0510 25.0000 105.0000 0.9925 3.3200 0.4700 9.1000
5.0000 5.3000 0.2100 0.2900 0.7000 0.0280 11.0000 66.0000 0.9921 3.3000 0.4000 9.8000
5.0000 5.3000 0.2300 0.5600 0.9000 0.0410 46.0000 141.0000 0.9912 3.1600 0.6200 9.7000
5.0000 5.3000 0.5800 0.0700 6.9000 0.0430 34.0000 149.0000 0.9944 3.3400 0.5700 9.7000
5.0000 5.3000 0.7600 0.0300 2.7000 0.0430 27.0000 93.0000 0.9932 3.3400 0.3800 9.2000
5.0000 5.4000 0.2400 0.1800 2.3000 0.0500 22.0000 145.0000 0.9921 3.2400 0.4600 10.3000
5.0000 5.4000 0.3100 0.4700 3.0000 0.0530 46.0000 144.0000 0.9931 3.2900 0.7600 10.0000
5.0000 5.4000 0.3750 0.4000 3.3000 0.0540 29.0000 147.0000 0.9948 3.4200 0.5200 9.1000
5.0000 5.4000 0.5950 0.1000 2.8000 0.0420 26.0000 80.0000 0.9932 3.3600 0.3800 9.3000
5.0000 5.5000 0.1200 0.3300 1.0000 0.0380 23.0000 131.0000 0.9916 3.2500 0.4500 9.8000
5.0000 5.5000 0.1400 0.2700 4.6000 0.0290 22.0000 104.0000 0.9949 3.3400 0.4400 9.0000
5.0000 5.5000 0.1700 0.2300 2.9000 0.0390 10.0000 108.0000 0.9924 3.2800 0.5000 10.0000
5.0000 5.5000 0.1800 0.2200 5.5000 0.0370 10.0000 86.0000 0.9916 3.4600 0.4400 12.2000
5.0000 5.5000 0.1900 0.2700 0.9000 0.0400 52.0000 103.0000 0.9903 3.5000 0.3900 11.2000
5.0000 5.5000 0.2400 0.3200 8.7000 0.0600 19.0000 102.0000 0.9940 3.2700 0.3100 10.4000
5.0000 5.5000 0.2400 0.4500 1.7000 0.0460 22.0000 113.0000 0.9922 3.2200 0.4800 10.0000
5.0000 5.5000 0.2800 0.2100 1.6000 0.0320 23.0000 85.0000 0.9903 3.4200 0.4200 12.5000
5.0000 5.5000 0.3200 0.1300 1.3000 0.0370 45.0000 156.0000 0.9918 3.2600 0.3800 10.7000
5.0000 5.6000 0.1200 0.2600 4.3000 0.0380 18.0000 97.0000 0.9948 3.3600 0.4600 9.2000
5.0000 5.6000 0.1900 0.2700 0.9000 0.0400 52.0000 103.0000 0.9903 3.5000 0.3900 11.2000
5.0000 5.6000 0.2000 0.2200 1.3000 0.0490 25.0000 155.0000 0.9930 3.7400 0.4300 10.0000
5.0000 5.6000 0.2450 0.2500 9.7000 0.0320 12.0000 68.0000 0.9940 3.3100 0.3400 10.5000
5.0000 5.6000 0.2600 0.2600 5.7000 0.0310 12.0000 80.0000 0.9923 3.2500 0.3800 10.8000
5.0000 5.6000 0.2900 0.0500 0.8000 0.0380 11.0000 30.0000 0.9924 3.3600 0.3500 9.2000
5.0000 5.6000 0.2950 0.2000 2.2000 0.0490 18.0000 134.0000 0.9938 3.2100 0.6800 10.0000
5.0000 5.6000 0.3000 0.1000 6.4000 0.0430 34.0000 142.0000 0.9938 3.1400 0.4800 9.8000
5.0000 5.6000 0.3400 0.2500 2.5000 0.0460 47.0000 182.0000 0.9909 3.2100 0.4000 11.3000
5.0000 5.6000 0.3500 0.1400 5.0000 0.0460 48.0000 198.0000 0.9937 3.3000 0.7100 10.3000
5.0000 5.6000 0.3500 0.3700 1.0000 0.0380 6.0000 72.0000 0.9902 3.3700 0.3400 11.4000
5.0000 5.6000 0.3900 0.2400 4.7000 0.0340 27.0000 77.0000 0.9906 3.2800 0.3600 12.7000
5.0000 5.6000 0.4100 0.2200 7.1000 0.0500 44.0000 154.0000 0.9931 3.3000 0.4000 10.5000
5.0000 5.6000 0.6950 0.0600 6.8000 0.0420 9.0000 84.0000 0.9943 3.4400 0.4400 10.2000
5.0000 5.7000 0.1000 0.2700 1.3000 0.0470 21.0000 100.0000 0.9928 3.2700 0.4600 9.5000
5.0000 5.7000 0.1400 0.3000 5.4000 0.0450 26.0000 105.0000 0.9947 3.3200 0.4500 9.3000
5.0000 5.7000 0.1600 0.3200 1.2000 0.0360 7.0000 89.0000 0.9911 3.2600 0.4800 11.0000
5.0000 5.7000 0.1800 0.2200 4.2000 0.0420 25.0000 111.0000 0.9940 3.3500 0.3900 9.4000
5.0000 5.7000 0.2400 0.4700 6.3000 0.0690 35.0000 182.0000 0.9939 3.1100 0.4600 9.7333
5.0000 5.7000 0.2400 0.4700 6.3000 0.0690 35.0000 182.0000 0.9939 3.1100 0.4600 9.7500
5.0000 5.7000 0.2450 0.3300 1.1000 0.0490 28.0000 150.0000 0.9927 3.1300 0.4200 9.3000
5.0000 5.7000 0.2550 0.6500 1.2000 0.0790 17.0000 137.0000 0.9931 3.2000 0.4200 9.4000
5.0000 5.7000 0.2600 0.2400 17.8000 0.0590 23.0000 124.0000 0.9977 3.3000 0.5000 10.1000
5.0000 5.7000 0.2600 0.2500 10.4000 0.0200 7.0000 57.0000 0.9940 3.3900 0.3700 10.6000
5.0000 5.7000 0.2800 0.2400 17.5000 0.0440 60.0000 167.0000 0.9989 3.3100 0.4400 9.4000
5.0000 5.7000 0.2900 0.1600 7.9000 0.0440 48.0000 197.0000 0.9951 3.2100 0.3600 9.4000
5.0000 5.7000 0.3300 0.1500 1.9000 0.0500 20.0000 93.0000 0.9934 3.3800 0.6200 9.9000
5.0000 5.7000 0.3350 0.3400 1.0000 0.0400 13.0000 174.0000 0.9920 3.2700 0.6600 10.0000
5.0000 5.7000 0.4500 0.4200 1.1000 0.0510 61.0000 197.0000 0.9932 3.0200 0.4000 9.0000
5.0000 5.7000 0.4600 0.4600 1.4000 0.0400 31.0000 169.0000 0.9932 3.1300 0.4700 8.8000
5.0000 5.7000 0.6950 0.0600 6.8000 0.0420 9.0000 84.0000 0.9943 3.4400 0.4400 10.2000
5.0000 5.8000 0.1500 0.2800 0.8000 0.0370 43.0000 127.0000 0.9920 3.2400 0.5100 9.3000
5.0000 5.8000 0.1500 0.4900 1.1000 0.0480 21.0000 98.0000 0.9929 3.1900 0.4800 9.2000
5.0000 5.8000 0.1900 0.2400 1.3000 0.0440 38.0000 128.0000 0.9936 3.7700 0.6000 10.6000
5.0000 5.8000 0.2000 0.3400 1.0000 0.0350 40.0000 86.0000 0.9899 3.5000 0.4200 11.7000
5.0000 5.8000 0.2200 0.3000 1.1000 0.0470 36.0000 131.0000 0.9920 3.2600 0.4500 10.4000
5.0000 5.8000 0.2500 0.2400 13.3000 0.0440 41.0000 137.0000 0.9972 3.3400 0.4200 9.5000
5.0000 5.8000 0.2500 0.2600 13.1000 0.0510 44.0000 148.0000 0.9972 3.2900 0.3800 9.3000
5.0000 5.8000 0.2500 0.2800 11.1000 0.0560 45.0000 175.0000 0.9976 3.4200 0.4300 9.5000
5.0000 5.8000 0.2600 0.2400 9.2000 0.0440 55.0000 152.0000 0.9961 3.3100 0.3800 9.4000
5.0000 5.8000 0.2700 0.2000 14.9500 0.0440 22.0000 179.0000 0.9962 3.3700 0.3700 10.2000
5.0000 5.8000 0.2700 0.2000 7.3000 0.0400 42.0000 145.0000 0.9944 3.1500 0.4800 9.8000
5.0000 5.8000 0.2800 0.2700 2.6000 0.0540 30.0000 156.0000 0.9914 3.5300 0.4200 12.4000
5.0000 5.8000 0.2800 0.6600 9.1000 0.0390 26.0000 159.0000 0.9965 3.6600 0.5500 10.8000
5.0000 5.8000 0.2900 0.0500 0.8000 0.0380 11.0000 30.0000 0.9924 3.3600 0.3500 9.2000
5.0000 5.8000 0.3000 0.0900 6.3000 0.0420 36.0000 138.0000 0.9938 3.1500 0.4800 9.7000
5.0000 5.8000 0.3100 0.3100 7.5000 0.0520 55.0000 230.0000 0.9949 3.1900 0.4600 9.8000
5.0000 5.8000 0.3200 0.2300 1.5000 0.0330 39.0000 121.0000 0.9887 2.9600 0.3500 12.0000
5.0000 5.8000 0.3300 0.2000 16.0500 0.0470 26.0000 166.0000 0.9976 3.0900 0.4600 8.9000
5.0000 5.8000 0.3300 0.2300 5.0000 0.0530 29.0000 106.0000 0.9946 3.1300 0.5200 9.0000
5.0000 5.8000 0.3350 0.1400 5.8000 0.0460 49.0000 197.0000 0.9937 3.3000 0.7100 10.3000
5.0000 5.8000 0.3400 0.2100 6.6000 0.0400 50.0000 167.0000 0.9941 3.2900 0.6200 10.0000
5.0000 5.8000 0.3400 0.2100 7.2000 0.0410 48.0000 146.0000 0.9944 3.1600 0.4900 9.8000
5.0000 5.8000 0.3600 0.5000 1.0000 0.1270 63.0000 178.0000 0.9921 3.1000 0.4500 9.7000
5.0000 5.8000 0.4150 0.1300 1.4000 0.0400 11.0000 64.0000 0.9922 3.2900 0.5200 10.5000
5.0000 5.8000 0.5400 0.0000 1.4000 0.0330 40.0000 107.0000 0.9892 3.2600 0.3500 12.4000
5.0000 5.8000 0.5550 0.2600 4.5000 0.0530 17.0000 126.0000 0.9943 3.2400 0.4600 9.1000
5.0000 5.8000 0.6000 0.0000 1.3000 0.0440 72.0000 197.0000 0.9920 3.5600 0.4300 10.9000
5.0000 5.9000 0.1700 0.2800 0.7000 0.0270 5.0000 28.0000 0.9899 3.1300 0.3200 10.6000
5.0000 5.9000 0.1900 0.2100 1.7000 0.0450 57.0000 135.0000 0.9934 3.3200 0.4400 9.5000
5.0000 5.9000 0.1900 0.3700 0.8000 0.0270 3.0000 21.0000 0.9897 3.0900 0.3100 10.8000
5.0000 5.9000 0.2100 0.2400 12.1000 0.0440 53.0000 165.0000 0.9969 3.2500 0.3900 9.5000
5.0000 5.9000 0.2200 0.1800 6.4000 0.0410 28.0000 120.0000 0.9940 3.2700 0.5000 9.9000
5.0000 5.9000 0.2200 0.4500 22.6000 0.1200 55.0000 122.0000 0.9964 3.1000 0.3500 12.8000
5.0000 5.9000 0.2300 0.3000 12.9000 0.0540 57.0000 170.0000 0.9972 3.2800 0.3900 9.4000
5.0000 5.9000 0.2500 0.1900 12.4000 0.0470 50.0000 162.0000 0.9973 3.3500 0.3800 9.5000
5.0000 5.9000 0.2600 0.2400 2.4000 0.0460 27.0000 132.0000 0.9923 3.6300 0.7300 11.3000
5.0000 5.9000 0.2600 0.2500 12.5000 0.0340 38.0000 152.0000 0.9977 3.3300 0.4300 9.4000
5.0000 5.9000 0.2600 0.2700 18.2000 0.0480 52.0000 168.0000 0.9993 3.3500 0.4400 9.4000
5.0000 5.9000 0.2600 0.3000 1.0000 0.0360 38.0000 114.0000 0.9928 3.5800 0.4800 9.4000
5.0000 5.9000 0.2600 0.4000 1.3000 0.0470 12.0000 139.0000 0.9945 3.4500 0.5300 10.4000
5.0000 5.9000 0.2900 0.1600 7.9000 0.0440 48.0000 197.0000 0.9951 3.2100 0.3600 9.4000
5.0000 5.9000 0.2900 0.3300 7.4000 0.0370 58.0000 205.0000 0.9950 3.2600 0.4100 9.6000
5.0000 5.9000 0.3000 0.2300 4.2000 0.0380 42.0000 119.0000 0.9924 3.1500 0.5000 11.0000
5.0000 5.9000 0.3000 0.2900 1.1000 0.0360 23.0000 56.0000 0.9904 3.1900 0.3800 11.3000
5.0000 5.9000 0.3200 0.1900 14.5000 0.0420 37.0000 115.0000 0.9968 3.1600 0.4300 10.3000
5.0000 5.9000 0.3200 0.2600 1.5000 0.0570 17.0000 141.0000 0.9917 3.2400 0.3600 10.7000
5.0000 5.9000 0.3500 0.4700 2.2000 0.1100 14.0000 138.0000 0.9932 3.0900 0.5000 9.1000
5.0000 5.9000 0.3600 0.0400 5.7000 0.0460 21.0000 87.0000 0.9934 3.2200 0.5100 10.2000
5.0000 5.9000 0.3700 0.1000 1.6000 0.0570 39.0000 128.0000 0.9924 3.2400 0.4800 10.1000
5.0000 5.9000 0.3700 0.1400 6.3000 0.0360 34.0000 185.0000 0.9944 3.1700 0.6300 9.8000
5.0000 5.9000 0.4150 0.0200 0.8000 0.0380 22.0000 63.0000 0.9932 3.3600 0.3600 9.3000
5.0000 5.9000 0.4150 0.1300 1.4000 0.0400 11.0000 64.0000 0.9922 3.2900 0.5200 10.5000
5.0000 5.9000 0.4200 0.3600 2.4000 0.0340 19.0000 77.0000 0.9918 3.2500 0.4800 10.9000
5.0000 5.9000 0.4400 0.3300 1.2000 0.0490 12.0000 117.0000 0.9913 3.4600 0.4400 11.5000
5.0000 5.9000 0.5400 0.0000 0.8000 0.0320 12.0000 82.0000 0.9929 3.2500 0.3600 8.8000
5.0000 6.0000 0.1400 0.3700 1.2000 0.0320 63.0000 148.0000 0.9919 3.3200 0.4400 11.2000
5.0000 6.0000 0.1600 0.2700 12.0000 0.0300 39.0000 98.0000 0.9940 3.1500 0.3400 10.8000
5.0000 6.0000 0.1600 0.3000 6.7000 0.0430 43.0000 153.0000 0.9951 3.6300 0.4600 10.6000
5.0000 6.0000 0.2000 0.2400 5.3000 0.0750 49.0000 201.0000 0.9947 3.2100 0.4300 9.5000
5.0000 6.0000 0.2000 0.7100 1.6000 0.1500 10.0000 54.0000 0.9927 3.1200 0.4700 9.8000
5.0000 6.0000 0.2100 0.2400 12.1000 0.0500 55.0000 164.0000 0.9970 3.3400 0.3900 9.4000
5.0000 6.0000 0.2100 0.2900 13.1000 0.0420 28.0000 125.0000 0.9994 3.3900 0.4500 8.6000
5.0000 6.0000 0.2100 0.3000 8.7000 0.0360 47.0000 127.0000 0.9937 3.1800 0.3900 10.6000
5.0000 6.0000 0.2300 0.1500 9.7000 0.0480 101.0000 207.0000 0.9957 3.0500 0.3000 9.1000
5.0000 6.0000 0.2400 0.3200 6.3000 0.0300 34.0000 129.0000 0.9946 3.5200 0.4100 10.4000
5.0000 6.0000 0.2600 0.1500 1.2000 0.0530 35.0000 124.0000 0.9935 3.0800 0.4600 8.8000
5.0000 6.0000 0.2600 0.1500 1.3000 0.0600 51.0000 154.0000 0.9935 3.1400 0.5100 8.7000
5.0000 6.0000 0.2600 0.1800 7.0000 0.0550 50.0000 194.0000 0.9959 3.2100 0.4300 9.0000
5.0000 6.0000 0.2600 0.3400 1.3000 0.0460 6.0000 29.0000 0.9924 3.2900 0.6300 10.4000
5.0000 6.0000 0.2600 0.5000 2.2000 0.0480 59.0000 153.0000 0.9928 3.0800 0.6100 9.8000
5.0000 6.0000 0.2700 0.1500 1.5000 0.0560 35.0000 128.0000 0.9936 3.1200 0.4500 8.8000
5.0000 6.0000 0.2700 0.2800 4.8000 0.0630 31.0000 201.0000 0.9964 3.6900 0.7100 10.0000
5.0000 6.0000 0.2800 0.2200 12.1500 0.0480 42.0000 163.0000 0.9957 3.2000 0.4600 10.1000
5.0000 6.0000 0.2800 0.2500 1.8000 0.0420 8.0000 108.0000 0.9929 3.0800 0.5500 9.0000
5.0000 6.0000 0.2800 0.2900 19.3000 0.0510 36.0000 174.0000 0.9991 3.1400 0.5000 9.0000
5.0000 6.0000 0.2800 0.3500 1.9000 0.0370 16.0000 120.0000 0.9933 3.1600 0.6900 10.6000
5.0000 6.0000 0.2800 0.4900 6.8000 0.0480 61.0000 222.0000 0.9953 3.1900 0.4700 9.3000
5.0000 6.0000 0.2900 0.2000 12.6000 0.0450 45.0000 187.0000 0.9972 3.3300 0.4200 9.5000
5.0000 6.0000 0.3000 0.4400 1.5000 0.0460 15.0000 182.0000 0.9946 3.5000 0.5200 10.4000
5.0000 6.0000 0.3200 0.1200 5.9000 0.0410 34.0000 190.0000 0.9944 3.1600 0.7200 10.0000
5.0000 6.0000 0.3200 0.3000 7.3000 0.1740 46.0000 159.0000 0.9952 3.1800 0.4900 9.4000
5.0000 6.0000 0.3200 0.4600 1.5000 0.0500 56.0000 189.0000 0.9931 3.2400 0.4900 9.6000
5.0000 6.0000 0.3300 0.2600 5.1000 0.0510 16.0000 119.0000 0.9942 3.1500 0.4100 9.2000
5.0000 6.0000 0.3300 0.2700 0.8000 0.1850 12.0000 188.0000 0.9924 3.1200 0.6200 9.4000
5.0000 6.0000 0.3600 0.0600 1.4000 0.0660 27.0000 128.0000 0.9934 3.2600 0.5500 9.3000
5.0000 6.0000 0.3600 0.1600 6.3000 0.0360 36.0000 191.0000 0.9942 3.1700 0.6200 9.8000
5.0000 6.0000 0.3600 0.3200 1.1000 0.0530 26.0000 173.0000 0.9941 3.3800 0.5400 8.8000
5.0000 6.0000 0.3900 0.1300 1.2000 0.0420 60.0000 172.0000 0.9911 3.0600 0.5200 10.6000
5.0000 6.0000 0.4100 0.2300 1.1000 0.0660 22.0000 148.0000 0.9927 3.3000 0.4700 9.6333
5.0000 6.0000 0.4200 0.4100 12.4000 0.0320 50.0000 179.0000 0.9962 3.1400 0.6000 9.7000
5.0000 6.0000 0.4500 0.4200 1.1000 0.0510 61.0000 197.0000 0.9932 3.0200 0.4000 9.0000
5.0000 6.0000 0.4500 0.6500 9.7000 0.0800 11.0000 159.0000 0.9956 3.0400 0.4800 9.4000
5.0000 6.0000 0.4950 0.2700 5.0000 0.1570 17.0000 129.0000 0.9940 3.0300 0.3600 9.3000
5.0000 6.0000 0.5550 0.2600 4.5000 0.0530 17.0000 126.0000 0.9943 3.2400 0.4600 9.1000
5.0000 6.1000 0.1500 0.3500 15.8000 0.0420 55.0000 158.0000 0.9964 3.2400 0.3700 10.6000
5.0000 6.1000 0.1600 0.2700 12.6000 0.0640 63.0000 162.0000 0.9994 3.6600 0.4300 8.9000
5.0000 6.1000 0.1700 0.2100 1.9000 0.0900 44.0000 130.0000 0.9926 3.0700 0.4100 9.7000
5.0000 6.1000 0.1700 0.4200 15.1000 0.0330 28.0000 124.0000 0.9968 2.8700 0.4700 9.5000
5.0000 6.1000 0.2000 0.2500 1.2000 0.0380 34.0000 128.0000 0.9921 3.2400 0.4400 10.1000
5.0000 6.1000 0.2000 0.4000 1.9000 0.0280 32.0000 138.0000 0.9914 3.2600 0.7200 11.7000
5.0000 6.1000 0.2100 0.1900 1.4000 0.0460 51.0000 131.0000 0.9918 3.2200 0.3900 10.5000
5.0000 6.1000 0.2200 0.2300 3.1000 0.0520 15.0000 104.0000 0.9948 3.1400 0.4200 8.7000
5.0000 6.1000 0.2200 0.2500 12.1000 0.0350 54.0000 135.0000 0.9948 3.2100 0.4000 10.7000
5.0000 6.1000 0.2200 0.2800 16.5500 0.0590 54.0000 135.0000 0.9967 3.2000 0.3800 10.5000
5.0000 6.1000 0.2200 0.3100 1.4000 0.0390 40.0000 129.0000 0.9919 3.4500 0.5900 10.9000
5.0000 6.1000 0.2200 0.4900 1.5000 0.0510 18.0000 87.0000 0.9928 3.3000 0.4600 9.6000
5.0000 6.1000 0.2300 0.4500 10.6000 0.0940 49.0000 169.0000 0.9970 3.0500 0.5400 8.8000
5.0000 6.1000 0.2400 0.3000 1.5000 0.0450 22.0000 61.0000 0.9920 3.3100 0.5400 10.4000
5.0000 6.1000 0.2500 0.1800 10.5000 0.0490 41.0000 124.0000 0.9963 3.1400 0.3500 10.5000
5.0000 6.1000 0.2500 0.2400 12.1000 0.0460 51.0000 172.0000 0.9980 3.3500 0.4500 9.5000
5.0000 6.1000 0.2500 0.4900 7.6000 0.0520 67.0000 226.0000 0.9956 3.1600 0.4700 8.9000
5.0000 6.1000 0.2700 0.2500 1.8000 0.0410 9.0000 109.0000 0.9929 3.0800 0.5400 9.0000
5.0000 6.1000 0.2700 0.3000 16.7000 0.0390 49.0000 172.0000 0.9999 3.4000 0.4500 9.4000
5.0000 6.1000 0.2700 0.4300 7.5000 0.0490 65.0000 243.0000 0.9957 3.1200 0.4700 9.0000
5.0000 6.1000 0.2700 0.4400 6.7000 0.0410 61.0000 230.0000 0.9950 3.1200 0.4000 8.9000
5.0000 6.1000 0.2800 0.2500 17.7500 0.0440 48.0000 161.0000 0.9993 3.3400 0.4800 9.5000
5.0000 6.1000 0.2800 0.2700 8.0000 0.0480 41.0000 162.0000 0.9950 3.2100 0.5100 9.9000
5.0000 6.1000 0.2800 0.3200 2.5000 0.0420 23.0000 218.5000 0.9935 3.2700 0.6000 9.8000
5.0000 6.1000 0.2800 0.3500 12.8000 0.0480 63.0000 229.0000 0.9975 3.0800 0.4000 8.9000
5.0000 6.1000 0.3000 0.4700 1.4000 0.0490 50.0000 187.0000 0.9927 3.1900 0.4500 9.5000
5.0000 6.1000 0.3300 0.3200 7.8000 0.0520 52.0000 183.0000 0.9966 3.3900 0.6500 9.5000
5.0000 6.1000 0.3400 0.2100 5.0000 0.0420 17.0000 133.0000 0.9937 3.0200 0.5300 9.4000
5.0000 6.1000 0.3400 0.2400 18.3500 0.0500 33.0000 184.0000 0.9994 3.1200 0.6100 9.3000
5.0000 6.1000 0.3400 0.3100 12.0000 0.0530 46.0000 238.0000 0.9977 3.1600 0.4800 8.6000
5.0000 6.1000 0.3500 0.0700 1.4000 0.0690 22.0000 108.0000 0.9934 3.2300 0.5200 9.2000
5.0000 6.1000 0.3600 0.4100 19.3500 0.0700 67.0000 207.0000 1.0012 3.3900 0.5300 9.1000
5.0000 6.1000 0.3600 0.5800 15.0000 0.0440 42.0000 115.0000 0.9978 3.1500 0.5100 9.0000
5.0000 6.1000 0.3700 0.2000 7.6000 0.0310 49.0000 170.0000 0.9956 3.2200 0.4800 9.5000
5.0000 6.1000 0.3800 0.4700 1.4000 0.0510 59.0000 210.0000 0.9931 3.2400 0.5000 9.6000
5.0000 6.1000 0.4000 0.1800 9.0000 0.0510 28.5000 259.0000 0.9964 3.1900 0.5000 8.8000
5.0000 6.1000 0.4100 0.1400 10.4000 0.0370 18.0000 119.0000 0.9960 3.3800 0.4500 10.0000
5.0000 6.1000 0.4300 0.3500 9.1000 0.0590 83.0000 249.0000 0.9971 3.3700 0.5000 8.5000
5.0000 6.1000 0.4500 0.2700 0.8000 0.0390 13.0000 82.0000 0.9927 3.2300 0.3200 9.5000
5.0000 6.1000 0.4600 0.3200 6.2000 0.0530 10.0000 94.0000 0.9954 3.3500 0.4700 10.1000
5.0000 6.1500 0.2100 0.3700 3.2000 0.0210 20.0000 80.0000 0.9908 3.3900 0.4700 12.0000
5.0000 6.2000 0.2000 0.2600 1.7000 0.0930 40.0000 161.0000 0.9924 3.4400 0.6600 11.0000
5.0000 6.2000 0.2100 0.2600 13.1000 0.0500 59.0000 150.0000 0.9977 3.3100 0.4600 9.0000
5.0000 6.2000 0.2300 0.2300 1.2000 0.0180 18.0000 128.0000 0.9918 3.0500 0.2800 10.6000
5.0000 6.2000 0.2300 0.3800 1.6000 0.0440 12.0000 113.0000 0.9918 3.3000 0.7300 11.4000
5.0000 6.2000 0.2350 0.3400 1.9000 0.0360 4.0000 117.0000 0.9903 3.4000 0.4400 12.2000
5.0000 6.2000 0.2400 0.2200 7.9000 0.0530 45.0000 149.0000 0.9954 3.2300 0.5200 9.3000
5.0000 6.2000 0.2400 0.2500 12.5000 0.0550 47.0000 134.0000 0.9976 3.3000 0.5100 9.0000
5.0000 6.2000 0.2500 0.3800 7.9000 0.0450 54.0000 208.0000 0.9957 3.1700 0.4600 9.1000
5.0000 6.2000 0.2500 0.4400 15.8000 0.0570 39.0000 167.0000 0.9980 3.1400 0.5100 9.2000
5.0000 6.2000 0.2500 0.4700 11.6000 0.0480 62.0000 210.0000 0.9968 3.1900 0.5000 9.5000
5.0000 6.2000 0.2500 0.5400 7.0000 0.0460 58.0000 176.0000 0.9945 3.1900 0.7000 10.4000
5.0000 6.2000 0.2600 0.3200 15.3000 0.0310 64.0000 185.0000 0.9983 3.3100 0.6100 9.4000
5.0000 6.2000 0.2700 0.1800 1.5000 0.0280 20.0000 111.0000 0.9923 3.4100 0.5000 10.0000
5.0000 6.2000 0.2700 0.3200 8.8000 0.0470 65.0000 224.0000 0.9961 3.1700 0.4700 8.9000
5.0000 6.2000 0.2700 0.4700 1.2000 0.1460 28.0000 105.0000 0.9922 3.2300 0.5100 10.1000
5.0000 6.2000 0.2800 0.4300 13.0000 0.0390 64.0000 233.0000 0.9974 3.0800 0.3800 8.9000
5.0000 6.2000 0.2800 0.5100 7.9000 0.0560 49.0000 206.0000 0.9956 3.1800 0.5200 9.4000
5.0000 6.2000 0.2900 0.2900 5.6000 0.0460 35.0000 178.0000 0.9931 3.2500 0.5100 10.5333
5.0000 6.2000 0.3000 0.1700 2.8000 0.0400 24.0000 125.0000 0.9939 3.0100 0.4600 9.0000
5.0000 6.2000 0.3000 0.3200 1.2000 0.0520 32.0000 185.0000 0.9927 3.2800 0.4400 10.1000
5.0000 6.2000 0.3000 0.3200 1.3000 0.0540 27.0000 183.0000 0.9927 3.3000 0.4300 10.1000
5.0000 6.2000 0.3100 0.2100 6.3000 0.0410 50.0000 218.0000 0.9941 3.1500 0.6000 10.0000
5.0000 6.2000 0.3100 0.2300 3.3000 0.0520 34.0000 113.0000 0.9943 3.1600 0.4800 8.4000
5.0000 6.2000 0.3200 0.1200 4.8000 0.0540 6.0000 97.0000 0.9942 3.1600 0.5000 9.3000
5.0000 6.2000 0.3200 0.2400 4.1000 0.0510 34.0000 149.0000 0.9931 3.3600 0.5200 11.0000
5.0000 6.2000 0.3200 0.5000 6.5000 0.0480 61.0000 186.0000 0.9948 3.1900 0.4500 9.6000
5.0000 6.2000 0.3300 0.1400 4.8000 0.0520 27.0000 128.0000 0.9948 3.2100 0.4800 9.4000
5.0000 6.2000 0.3300 0.1900 5.6000 0.0420 22.0000 143.0000 0.9942 3.1500 0.6300 9.9000
5.0000 6.2000 0.3300 0.2900 1.3000 0.0420 26.0000 138.0000 0.9956 3.7700 0.6400 9.5000
5.0000 6.2000 0.3400 0.2800 7.5000 0.0340 40.0000 197.0000 0.9949 3.1400 0.6000 9.7000
5.0000 6.2000 0.3400 0.3000 11.1000 0.0470 28.0000 237.0000 0.9981 3.1800 0.4900 8.7000
5.0000 6.2000 0.3450 0.2700 10.1000 0.0560 38.0000 187.0000 0.9949 3.3100 0.5600 10.6000
5.0000 6.2000 0.3500 0.0300 1.2000 0.0640 29.0000 120.0000 0.9934 3.2200 0.5400 9.1000
5.0000 6.2000 0.3500 0.0400 1.2000 0.0600 23.0000 108.0000 0.9934 3.2600 0.5400 9.2000
5.0000 6.2000 0.3600 0.1400 8.9000 0.0360 38.0000 155.0000 0.9962 3.2700 0.5000 9.4000
5.0000 6.2000 0.3600 0.2600 13.2000 0.0510 54.0000 201.0000 0.9976 3.2500 0.4600 9.0000
5.0000 6.2000 0.3700 0.3000 6.6000 0.3460 79.0000 200.0000 0.9954 3.2900 0.5800 9.6000
5.0000 6.2000 0.4400 0.1800 7.7000 0.0960 28.0000 210.0000 0.9977 3.5600 0.7200 9.2000
5.0000 6.2000 0.4500 0.7300 7.2000 0.0990 47.0000 202.0000 0.9958 3.2100 0.4300 9.2000
5.0000 6.2000 0.4600 0.2500 4.4000 0.0660 62.0000 207.0000 0.9939 3.2500 0.5200 9.8000
5.0000 6.2000 0.4700 0.2100 1.0000 0.0440 13.0000 98.0000 0.9935 3.1400 0.4600 9.2000
5.0000 6.3000 0.1600 0.4000 1.6000 0.0330 59.0000 148.0000 0.9914 3.4400 0.5300 11.4000
5.0000 6.3000 0.1700 0.2300 5.7000 0.0480 44.0000 147.0000 0.9938 3.0800 0.5400 10.0000
5.0000 6.3000 0.1800 0.2200 1.5000 0.0430 45.0000 155.0000 0.9924 3.1900 0.4800 10.2000
5.0000 6.3000 0.1800 0.2200 5.6000 0.0470 45.0000 147.0000 0.9938 3.0900 0.5400 10.0000
5.0000 6.3000 0.1900 0.3300 10.1000 0.0630 63.0000 133.0000 0.9956 2.8600 0.4100 9.1000
5.0000 6.3000 0.2000 0.1800 10.6000 0.0450 57.0000 159.0000 0.9967 3.0900 0.5400 9.2000
5.0000 6.3000 0.2000 0.3700 11.8000 0.0450 58.0000 130.0000 0.9952 3.2000 0.3500 10.8000
5.0000 6.3000 0.2100 0.2900 11.7000 0.0480 49.0000 147.0000 0.9948 3.2200 0.3800 10.8000
5.0000 6.3000 0.2100 0.5800 10.0000 0.0810 34.0000 126.0000 0.9962 2.9500 0.4600 8.9000
5.0000 6.3000 0.2300 0.4900 7.1000 0.0500 67.0000 210.0000 0.9951 3.2300 0.3400 9.5000
5.0000 6.3000 0.2400 0.2900 1.6000 0.0520 48.0000 185.0000 0.9934 3.2100 0.5000 9.4000
5.0000 6.3000 0.2400 0.5500 8.1000 0.0400 67.0000 216.0000 0.9960 3.2400 0.5000 9.2000
5.0000 6.3000 0.2500 0.2700 6.6000 0.0540 40.0000 158.0000 0.9938 3.2000 0.4800 10.3000
5.0000 6.3000 0.2500 0.4400 11.6000 0.0410 48.0000 195.0000 0.9968 3.1800 0.5200 9.5000
5.0000 6.3000 0.2600 0.2500 7.8000 0.0580 44.0000 166.0000 0.9961 3.2400 0.4100 9.0000
5.0000 6.3000 0.2700 0.1800 7.7000 0.0480 45.0000 186.0000 0.9962 3.2300 0.4700 9.0000
5.0000 6.3000 0.2700 0.2300 2.9000 0.0470 13.0000 100.0000 0.9936 3.2800 0.4300 9.8000
5.0000 6.3000 0.2700 0.4600 11.1000 0.0530 44.0000 177.0000 0.9969 3.1800 0.6700 9.4000
5.0000 6.3000 0.2800 0.3000 3.1000 0.0390 24.0000 115.0000 0.9942 3.0500 0.4300 8.6000
5.0000 6.3000 0.2900 0.1400 7.0500 0.0450 50.0000 177.0000 0.9956 3.2300 0.4200 9.0000
5.0000 6.3000 0.2900 0.3000 8.1000 0.2120 60.0000 150.0000 0.9958 3.1000 0.4000 9.3000
5.0000 6.3000 0.3000 0.1900 7.7000 0.0490 47.0000 184.0000 0.9951 3.2200 0.4800 9.5000
5.0000 6.3000 0.3000 0.2000 3.7000 0.0390 34.0000 132.0000 0.9916 3.0000 0.3800 10.7000
5.0000 6.3000 0.3000 0.2400 6.6000 0.0400 38.0000 141.0000 0.9950 3.2200 0.4700 9.5000
5.0000 6.3000 0.3000 0.4800 7.4000 0.0530 34.0000 149.0000 0.9947 3.1800 0.5300 9.8000
5.0000 6.3000 0.3050 0.2200 16.0000 0.0610 26.0000 141.0000 0.9982 3.0800 0.5000 9.1000
5.0000 6.3000 0.3100 0.3400 2.2000 0.0450 20.0000 77.0000 0.9927 3.3000 0.4300 10.2000
5.0000 6.3000 0.3200 0.2600 12.3000 0.0440 24.0000 205.0000 0.9961 3.1100 0.5800 9.9000
5.0000 6.3000 0.3200 0.3200 1.5000 0.0300 24.0000 101.0000 0.9892 3.2100 0.4200 13.0000
5.0000 6.3000 0.3300 0.2000 17.9000 0.0660 36.0000 161.0000 0.9991 3.1400 0.5100 8.8000
5.0000 6.3000 0.3300 0.2000 5.8000 0.0400 24.0000 144.0000 0.9942 3.1500 0.6300 9.9000
5.0000 6.3000 0.3400 0.1900 5.8000 0.0410 22.0000 145.0000 0.9943 3.1500 0.6300 9.9000
5.0000 6.3000 0.3400 0.2800 14.7000 0.0470 49.0000 198.0000 0.9977 3.2300 0.4600 9.5000
5.0000 6.3000 0.3400 0.3600 4.9000 0.0350 31.0000 185.0000 0.9946 3.1500 0.4900 9.7000
5.0000 6.3000 0.3400 0.5200 6.3000 0.0470 63.0000 186.0000 0.9948 3.1800 0.4400 9.6000
5.0000 6.3000 0.3500 0.2600 17.6000 0.0610 59.0000 198.0000 0.9992 3.1100 0.4900 8.8000
5.0000 6.3000 0.3600 0.2000 2.0000 0.0480 48.0000 191.0000 0.9929 3.1700 0.5100 9.6000
5.0000 6.3000 0.3600 0.3000 4.8000 0.0490 14.0000 85.0000 0.9932 3.2800 0.3900 10.6000
5.0000 6.3000 0.3900 0.2200 2.8000 0.0480 53.0000 173.0000 0.9930 3.2400 0.4500 9.8000
5.0000 6.3000 0.3900 0.3500 5.9000 0.0400 82.5000 260.0000 0.9941 3.1200 0.6600 10.1000
5.0000 6.3000 0.4100 0.1600 0.9000 0.0320 25.0000 98.0000 0.9927 3.1600 0.4200 9.5000
5.0000 6.3000 0.6950 0.5500 12.9000 0.0560 58.0000 252.0000 0.9981 3.2900 0.4900 8.7000
5.0000 6.4000 0.1500 0.2900 1.8000 0.0440 21.0000 115.0000 0.9917 3.1000 0.3800 10.2000
5.0000 6.4000 0.1600 0.3100 5.3000 0.0430 42.0000 157.0000 0.9946 3.3500 0.4700 10.5000
5.0000 6.4000 0.1600 0.3200 8.7500 0.0380 38.0000 118.0000 0.9945 3.1900 0.4100 10.7000
5.0000 6.4000 0.1800 0.4800 4.0000 0.1860 64.0000 150.0000 0.9945 3.0600 0.4000 9.3000
5.0000 6.4000 0.1800 0.7400 11.9000 0.0460 54.0000 168.0000 0.9978 3.5800 0.6800 10.1000
5.0000 6.4000 0.2000 0.2800 2.5000 0.0320 24.0000 84.0000 0.9917 3.3100 0.5500 11.5000
5.0000 6.4000 0.2100 0.2100 5.1000 0.0970 21.0000 105.0000 0.9939 3.0700 0.4600 9.6000
5.0000 6.4000 0.2100 0.3400 16.0500 0.0400 56.0000 142.0000 0.9968 3.1100 0.3800 10.6000
5.0000 6.4000 0.2100 0.4400 7.4000 0.0450 47.0000 182.0000 0.9957 3.2400 0.4600 9.1000
5.0000 6.4000 0.2100 0.5000 11.6000 0.0420 45.0000 153.0000 0.9972 3.1500 0.4300 8.8000
5.0000 6.4000 0.2200 0.3000 11.2000 0.0460 53.0000 149.0000 0.9948 3.2100 0.3400 10.8000
5.0000 6.4000 0.2200 0.3100 13.9000 0.0400 57.0000 135.0000 0.9967 3.2100 0.3800 10.7000
5.0000 6.4000 0.2200 0.3200 7.9000 0.0290 34.0000 124.0000 0.9948 3.4000 0.3900 10.2000
5.0000 6.4000 0.2200 0.5600 14.5000 0.0550 27.0000 159.0000 0.9980 2.9800 0.4000 9.1000
5.0000 6.4000 0.2300 0.2600 8.1000 0.0540 47.0000 181.0000 0.9954 3.1200 0.4900 9.4000
5.0000 6.4000 0.2300 0.3500 10.3000 0.0420 54.0000 140.0000 0.9967 3.2300 0.4700 9.2000
5.0000 6.4000 0.2400 0.2300 7.3000 0.0690 31.0000 157.0000 0.9962 3.2500 0.5300 9.1000
5.0000 6.4000 0.2400 0.2500 20.2000 0.0830 35.0000 157.0000 0.9998 3.1700 0.5000 9.1000
5.0000 6.4000 0.2400 0.2600 8.2000 0.0540 47.0000 182.0000 0.9954 3.1200 0.5000 9.5000
5.0000 6.4000 0.2400 0.2800 11.5000 0.0500 34.0000 163.0000 0.9969 3.3100 0.4500 9.5000
5.0000 6.4000 0.2400 0.2900 1.0000 0.0380 18.0000 122.0000 0.9906 3.3000 0.4200 11.5000
5.0000 6.4000 0.2400 0.2900 11.4000 0.0510 32.0000 166.0000 0.9968 3.3100 0.4500 9.5000
5.0000 6.4000 0.2400 0.3200 0.9500 0.0410 23.0000 131.0000 0.9903 3.2500 0.3500 11.8000
5.0000 6.4000 0.2400 0.5000 11.6000 0.0470 60.0000 211.0000 0.9966 3.1800 0.5700 9.3000
5.0000 6.4000 0.2500 0.4100 8.6000 0.0420 57.0000 173.0000 0.9965 3.0000 0.4400 9.1000
5.0000 6.4000 0.2500 0.5300 6.6000 0.0380 59.0000 234.0000 0.9955 3.0300 0.4200 8.8000
5.0000 6.4000 0.2500 0.5700 1.0000 0.0620 21.0000 122.0000 0.9924 3.0000 0.4000 9.5000
5.0000 6.4000 0.2600 0.2100 8.2000 0.0500 51.0000 182.0000 0.9954 3.2300 0.4800 9.5000
5.0000 6.4000 0.2600 0.2200 5.1000 0.0370 23.0000 131.0000 0.9944 3.2900 0.3200 10.1000
5.0000 6.4000 0.2600 0.2600 1.1000 0.0520 22.0000 176.0000 0.9930 3.0900 0.5400 9.3000
5.0000 6.4000 0.2600 0.3500 7.7000 0.0560 45.0000 191.0000 0.9953 3.1600 0.5000 9.5000
5.0000 6.4000 0.2600 0.4000 1.7000 0.1790 5.0000 60.0000 0.9925 3.0900 0.5400 10.1000
5.0000 6.4000 0.2600 0.4300 12.6000 0.0330 64.0000 230.0000 0.9974 3.0800 0.3800 8.9000
5.0000 6.4000 0.2700 0.1700 8.4000 0.0440 60.0000 198.0000 0.9958 3.2100 0.4700 9.4000
5.0000 6.4000 0.2700 0.3200 4.5000 0.2400 61.0000 174.0000 0.9948 3.1200 0.4800 9.4000
5.0000 6.4000 0.2700 0.4500 8.3000 0.0500 52.0000 196.0000 0.9955 3.1800 0.4800 9.5000
5.0000 6.4000 0.2800 0.1700 8.3000 0.0420 61.0000 195.0000 0.9958 3.2200 0.4600 9.4000
5.0000 6.4000 0.2800 0.2300 6.0000 0.0510 50.0000 162.0000 0.9940 3.1500 0.5200 10.2000
5.0000 6.4000 0.2800 0.2700 11.0000 0.0420 45.0000 148.0000 0.9979 3.1400 0.4600 8.7000
5.0000 6.4000 0.2800 0.3600 1.3000 0.0530 28.0000 186.0000 0.9921 3.3100 0.4500 10.8000
5.0000 6.4000 0.2800 0.4100 6.8000 0.0450 61.0000 216.0000 0.9952 3.0900 0.4600 9.4000
5.0000 6.4000 0.2800 0.4400 7.1000 0.0480 49.0000 179.0000 0.9953 3.1500 0.4800 9.2000
5.0000 6.4000 0.2800 0.4500 8.6000 0.0570 47.0000 223.0000 0.9965 3.1600 0.5100 9.1000
5.0000 6.4000 0.2900 0.1800 15.0000 0.0400 21.0000 116.0000 0.9974 3.1400 0.5000 9.2000
5.0000 6.4000 0.2900 0.2000 15.6000 0.0400 20.0000 142.0000 0.9962 3.1000 0.5400 10.6000
5.0000 6.4000 0.2900 0.2800 11.1000 0.0630 66.0000 169.0000 0.9973 2.8900 0.5700 9.0000
5.0000 6.4000 0.2900 0.3000 6.5000 0.2090 62.0000 156.0000 0.9948 3.1000 0.4000 9.4000
5.0000 6.4000 0.2900 0.4400 3.6000 0.1970 75.0000 183.0000 0.9942 3.0100 0.3800 9.1000
5.0000 6.4000 0.2900 0.4400 3.6000 0.2000 75.0000 181.0000 0.9942 3.0200 0.4100 9.1000
5.0000 6.4000 0.2900 0.5700 1.0000 0.0600 15.0000 120.0000 0.9924 3.0600 0.4100 9.5000
5.0000 6.4000 0.3000 0.1600 7.5000 0.0500 55.0000 191.0000 0.9959 3.1700 0.4900 9.0000
5.0000 6.4000 0.3000 0.3300 5.2000 0.0500 30.0000 137.0000 0.9930 3.2600 0.5800 11.1000
5.0000 6.4000 0.3000 0.3800 7.8000 0.0460 35.0000 192.0000 0.9955 3.1000 0.3700 9.0000
5.0000 6.4000 0.3100 0.2600 13.2000 0.0460 57.0000 205.0000 0.9975 3.1700 0.4100 9.6000
5.0000 6.4000 0.3100 0.3100 12.9000 0.0450 55.0000 161.0000 0.9955 3.0200 0.5900 10.2000
5.0000 6.4000 0.3100 0.3900 7.5000 0.0400 57.0000 213.0000 0.9948 3.3200 0.4300 10.0000
5.0000 6.4000 0.3100 0.4000 6.4000 0.0390 39.0000 191.0000 0.9951 3.1400 0.5200 9.8000
5.0000 6.4000 0.3100 0.5300 8.8000 0.0570 36.0000 221.0000 0.9964 3.1700 0.4400 9.1000
5.0000 6.4000 0.3200 0.2300 16.2000 0.0550 36.0000 176.0000 0.9986 3.2600 0.5400 9.1000
5.0000 6.4000 0.3200 0.2600 7.9000 0.0500 53.0000 180.0000 0.9951 3.1400 0.5000 9.6000
5.0000 6.4000 0.3200 0.5000 10.7000 0.0470 57.0000 206.0000 0.9968 3.0800 0.6000 9.4000
5.0000 6.4000 0.3300 0.2400 1.6000 0.0540 25.0000 117.0000 0.9943 3.3600 0.5000 9.3000
5.0000 6.4000 0.3300 0.4400 8.9000 0.0550 52.0000 164.0000 0.9949 3.1000 0.4800 9.6000
5.0000 6.4000 0.3400 0.1000 1.1000 0.0480 19.0000 84.0000 0.9927 3.2100 0.3800 9.8000
5.0000 6.4000 0.3400 0.4400 8.2000 0.0430 54.0000 201.0000 0.9955 3.1800 0.4800 9.5000
5.0000 6.4000 0.3500 0.2000 5.7000 0.0340 18.0000 117.0000 0.9944 3.3300 0.4300 10.1000
5.0000 6.4000 0.3500 0.2100 2.1000 0.0510 46.0000 171.0000 0.9932 3.1600 0.5000 9.5000
5.0000 6.4000 0.3500 0.5100 7.8000 0.0550 53.0000 177.0000 0.9950 3.1200 0.4500 9.6000
5.0000 6.4000 0.3700 0.2000 5.6000 0.1170 61.0000 183.0000 0.9946 3.2400 0.4300 9.5000
5.0000 6.4000 0.3800 0.2400 7.2000 0.0470 41.0000 151.0000 0.9960 3.1100 0.6000 9.2000
5.0000 6.4000 0.3900 0.2100 1.2000 0.0410 35.0000 136.0000 0.9922 3.1500 0.4600 10.2000
5.0000 6.4000 0.4100 0.0100 6.1000 0.0480 20.0000 70.0000 0.9936 3.1900 0.4200 10.0000
5.0000 6.4000 0.4200 0.1900 9.3000 0.0430 28.0000 145.0000 0.9943 3.2300 0.5300 10.9800
5.0000 6.4000 0.4300 0.3200 1.4000 0.0480 10.0000 67.0000 0.9920 3.0800 0.4100 11.4000
5.0000 6.4000 0.4400 0.2600 2.0000 0.0540 20.0000 180.0000 0.9952 3.5800 0.5700 10.0000
5.0000 6.4000 0.4500 0.0700 1.1000 0.0300 10.0000 131.0000 0.9905 2.9700 0.2800 10.8000
5.0000 6.4000 0.4600 0.0800 4.9000 0.0460 34.0000 144.0000 0.9944 3.1000 0.5600 10.0000
5.0000 6.4000 0.4600 0.2200 14.7000 0.0470 51.0000 183.0000 0.9983 3.3900 0.6000 10.5000
5.0000 6.4000 0.4750 0.0600 1.0000 0.0300 9.0000 131.0000 0.9904 2.9700 0.2900 10.8000
5.0000 6.4000 0.5000 0.1600 12.9000 0.0420 26.0000 138.0000 0.9974 3.2800 0.3300 9.0000
5.0000 6.4000 0.6200 0.1200 4.7000 0.0600 33.0000 196.0000 0.9956 3.2200 0.4800 8.9000
5.0000 6.4000 0.6800 0.2600 3.4000 0.0690 25.0000 146.0000 0.9935 3.1800 0.4000 9.3000
5.0000 6.5000 0.1400 0.3300 7.6000 0.0500 53.0000 189.0000 0.9966 3.2500 0.4900 8.6000
5.0000 6.5000 0.1500 0.5500 5.9000 0.0450 75.0000 162.0000 0.9948 2.9700 0.4000 9.3000
5.0000 6.5000 0.1900 0.1000 1.3000 0.0460 23.0000 107.0000 0.9937 3.2900 0.4500 10.0000
5.0000 6.5000 0.2000 0.2400 9.2000 0.0440 25.0000 150.0000 0.9950 3.2200 0.4400 10.5000
5.0000 6.5000 0.2200 0.1900 4.5000 0.0960 16.0000 115.0000 0.9937 3.0200 0.4400 9.6000
5.0000 6.5000 0.2200 0.2500 17.1000 0.0500 44.0000 138.0000 1.0001 3.3000 0.3700 8.8000
5.0000 6.5000 0.2200 0.3100 3.9000 0.0460 17.0000 106.0000 0.9910 3.1500 0.3100 11.5000
5.0000 6.5000 0.2300 0.2000 7.5000 0.0500 44.0000 179.0000 0.9950 3.1800 0.4800 9.5333
5.0000 6.5000 0.2300 0.3600 16.3000 0.0380 43.0000 133.0000 0.9992 3.2600 0.4100 8.8000
5.0000 6.5000 0.2300 0.3800 1.3000 0.0320 29.0000 112.0000 0.9930 3.2900 0.5400 9.7000
5.0000 6.5000 0.2400 0.2400 1.6000 0.0460 15.0000 60.0000 0.9928 3.1900 0.3900 9.8000
5.0000 6.5000 0.2500 0.2700 15.2000 0.0490 75.0000 217.0000 0.9972 3.1900 0.3900 9.9000
5.0000 6.5000 0.2500 0.3500 12.0000 0.0550 47.0000 179.0000 0.9980 3.5800 0.4700 10.0000
5.0000 6.5000 0.2500 0.4500 7.8000 0.0480 52.0000 188.0000 0.9958 3.2000 0.5300 9.1000
5.0000 6.5000 0.2500 0.5000 7.6000 0.0470 54.0000 184.0000 0.9957 3.1700 0.4500 9.2000
5.0000 6.5000 0.2600 0.3200 6.6500 0.0590 34.0000 104.0000 0.9925 3.1800 0.4200 11.1000
5.0000 6.5000 0.2600 0.3400 1.4000 0.0400 25.0000 184.0000 0.9922 3.2900 0.4600 10.7000
5.0000 6.5000 0.2600 0.3400 16.3000 0.0510 56.0000 197.0000 1.0004 3.4900 0.4200 9.8000
5.0000 6.5000 0.2600 0.4300 8.9000 0.0830 50.0000 171.0000 0.9965 2.8500 0.5000 9.0000
5.0000 6.5000 0.2600 0.5000 8.0000 0.0510 46.0000 197.0000 0.9954 3.1800 0.4700 9.5000
5.0000 6.5000 0.2700 0.2600 11.0000 0.0300 2.0000 82.0000 0.9940 3.0700 0.3600 11.2000
5.0000 6.5000 0.2700 0.4000 10.0000 0.0390 74.0000 227.0000 0.9958 3.1800 0.5000 9.4000
5.0000 6.5000 0.2800 0.2800 20.4000 0.0410 40.0000 144.0000 1.0002 3.1400 0.3800 8.7000
5.0000 6.5000 0.2800 0.3400 9.9000 0.0380 30.0000 133.0000 0.9954 3.1100 0.4400 9.8000
5.0000 6.5000 0.3000 0.2900 2.2500 0.0370 8.0000 210.0000 0.9937 3.1900 0.6200 9.9000
5.0000 6.5000 0.3000 0.3900 7.8000 0.0380 61.0000 219.0000 0.9959 3.1900 0.5000 9.4000
5.0000 6.5000 0.3100 0.1400 7.5000 0.0440 34.0000 133.0000 0.9955 3.2200 0.5000 9.5000
5.0000 6.5000 0.3150 0.2000 6.6000 0.0410 9.0000 126.0000 0.9949 2.9400 0.5100 8.8000
5.0000 6.5000 0.3200 0.1200 11.5000 0.0330 35.0000 165.0000 0.9974 3.2200 0.3200 9.0000
5.0000 6.5000 0.3200 0.2300 8.5000 0.0510 20.0000 138.0000 0.9943 3.0300 0.4200 10.7000
5.0000 6.5000 0.3300 0.3800 8.3000 0.0480 68.0000 174.0000 0.9949 3.1400 0.5000 9.6000
5.0000 6.5000 0.3500 0.3100 10.2000 0.0690 58.0000 170.0000 0.9969 3.1800 0.4900 9.4000
5.0000 6.5000 0.3600 0.1600 1.3000 0.0540 11.0000 107.0000 0.9940 3.1900 0.3900 8.5000
5.0000 6.5000 0.3600 0.3200 1.1000 0.0310 13.0000 66.0000 0.9916 3.1000 0.4600 10.6000
5.0000 6.5000 0.3600 0.3600 6.7000 0.1850 51.5000 151.0000 0.9953 3.1700 0.4200 9.3000
5.0000 6.5000 0.3800 0.3400 3.4000 0.0360 34.0000 200.0000 0.9937 3.1400 0.7600 10.0000
5.0000 6.5000 0.3900 0.2300 5.4000 0.0510 25.0000 149.0000 0.9934 3.2400 0.3500 10.0000
5.0000 6.5000 0.3900 0.3500 1.6000 0.0490 10.0000 164.0000 0.9952 3.3500 0.5100 9.7000
5.0000 6.5000 0.3900 0.8100 1.2000 0.2170 14.0000 74.0000 0.9936 3.0800 0.5300 9.5000
5.0000 6.5000 0.4100 0.2200 4.8000 0.0520 49.0000 142.0000 0.9946 3.1400 0.6200 9.2000
5.0000 6.5000 0.4100 0.6400 11.8000 0.0650 65.0000 225.0000 0.9978 3.1200 0.5100 8.9000
5.0000 6.5000 0.4250 0.4000 13.1000 0.0380 59.0000 241.0000 0.9979 3.2300 0.5700 9.0000
5.0000 6.5000 0.4300 0.1800 13.1500 0.0320 25.0000 131.0000 0.9957 3.2300 0.5100 10.7000
5.0000 6.5000 0.4300 0.2800 12.0000 0.0560 23.0000 174.0000 0.9986 3.3100 0.5500 9.3000
5.0000 6.5000 0.4600 0.4100 16.8000 0.0840 59.0000 222.0000 0.9993 3.1800 0.5800 9.0000
5.0000 6.5000 0.5100 0.2500 1.7000 0.0480 39.0000 177.0000 0.9921 3.2800 0.5700 10.5667
5.0000 6.5000 0.5100 0.2500 1.7000 0.0480 39.0000 177.0000 0.9921 3.2800 0.5700 10.6000
5.0000 6.6000 0.1500 0.3400 5.1000 0.0550 34.0000 125.0000 0.9942 3.3600 0.4200 9.6000
5.0000 6.6000 0.1700 0.2800 1.8000 0.0420 62.0000 178.0000 0.9920 3.1500 0.4200 10.2000
5.0000 6.6000 0.1900 0.3300 1.8000 0.0350 42.0000 148.0000 0.9920 3.1500 0.3600 10.2000
5.0000 6.6000 0.2100 0.3400 5.6000 0.0460 30.0000 140.0000 0.9930 3.2200 0.3800 11.0000
5.0000 6.6000 0.2200 0.2800 12.0500 0.0580 25.0000 125.0000 0.9986 3.4500 0.4500 9.4000
5.0000 6.6000 0.2200 0.3400 11.6000 0.0500 59.0000 140.0000 0.9953 3.2200 0.4000 10.8000
5.0000 6.6000 0.2200 0.3700 15.4000 0.0350 62.0000 153.0000 0.9984 3.0200 0.4000 9.3000
5.0000 6.6000 0.2200 0.3700 1.6000 0.0400 31.0000 101.0000 0.9901 3.1500 0.6600 12.0000
5.0000 6.6000 0.2200 0.5300 15.1000 0.0520 22.0000 136.0000 0.9986 2.9400 0.3500 9.4000
5.0000 6.6000 0.2200 0.5800 1.1000 0.1330 52.0000 136.0000 0.9932 3.1000 0.3000 9.1000
5.0000 6.6000 0.2300 0.1800 8.5000 0.0440 59.0000 188.0000 0.9956 3.1600 0.4900 9.5000
5.0000 6.6000 0.2300 0.2700 5.6000 0.0430 43.0000 164.0000 0.9953 3.2700 0.7600 9.5000
5.0000 6.6000 0.2400 0.2200 12.3000 0.0510 35.0000 146.0000 0.9968 3.1000 0.6700 9.4000
5.0000 6.6000 0.2400 0.2700 10.3000 0.0470 54.0000 219.0000 0.9974 3.0400 0.4500 8.8000
5.0000 6.6000 0.2400 0.2700 15.8000 0.0350 46.0000 188.0000 0.9982 3.2400 0.5100 9.2000
5.0000 6.6000 0.2400 0.2800 1.8000 0.0280 39.0000 132.0000 0.9918 3.3400 0.4600 11.4000
5.0000 6.6000 0.2400 0.3500 7.7000 0.0310 36.0000 135.0000 0.9938 3.1900 0.3700 10.5000
5.0000 6.6000 0.2400 0.3800 8.0000 0.0420 56.0000 187.0000 0.9958 3.2100 0.4600 9.2000
5.0000 6.6000 0.2500 0.3300 8.5000 0.0420 29.0000 141.0000 0.9955 3.2800 0.6000 10.4000
5.0000 6.6000 0.2500 0.3500 14.0000 0.0690 42.0000 163.0000 0.9990 3.5600 0.4700 9.8000
5.0000 6.6000 0.2500 0.3600 8.1000 0.0450 54.0000 180.0000 0.9958 3.0800 0.4200 9.2000
5.0000 6.6000 0.2500 0.5100 8.0000 0.0470 61.0000 189.0000 0.9960 3.2200 0.4900 9.2000
5.0000 6.6000 0.2600 0.2200 18.1500 0.0500 23.0000 139.0000 0.9990 3.0600 0.5000 9.2000
5.0000 6.6000 0.2600 0.3100 4.8000 0.1380 41.0000 168.0000 0.9951 3.2000 0.3800 9.3000
5.0000 6.6000 0.2600 0.4600 6.9000 0.0470 59.0000 183.0000 0.9959 3.2000 0.4500 9.3000
5.0000 6.6000 0.2600 0.4600 7.8000 0.0470 48.0000 186.0000 0.9958 3.2000 0.5400 9.1000
5.0000 6.6000 0.2600 0.5600 15.4000 0.0530 32.0000 141.0000 0.9981 3.1100 0.4900 9.3000
5.0000 6.6000 0.2700 0.2500 3.1000 0.0520 41.0000 188.0000 0.9915 3.2400 0.4000 11.3000
5.0000 6.6000 0.2700 0.2900 5.3000 0.0450 57.0000 189.0000 0.9953 3.3100 0.7900 9.8000
5.0000 6.6000 0.2700 0.3100 5.3000 0.1370 35.0000 163.0000 0.9951 3.2000 0.3800 9.3000
5.0000 6.6000 0.2700 0.3200 1.3000 0.0440 18.0000 93.0000 0.9904 3.1100 0.5600 12.2500
5.0000 6.6000 0.2700 0.3300 1.4000 0.0420 24.0000 183.0000 0.9921 3.2900 0.4600 10.7000
5.0000 6.6000 0.2700 0.5200 8.1000 0.0440 53.0000 202.0000 0.9955 3.1800 0.4800 9.5000
5.0000 6.6000 0.2800 0.2300 10.4000 0.0490 45.0000 190.0000 0.9975 3.1200 0.5100 8.8000
5.0000 6.6000 0.2800 0.3000 7.8000 0.0490 57.0000 202.0000 0.9958 3.2400 0.3900 9.5000
5.0000 6.6000 0.2800 0.4100 7.0000 0.0460 59.0000 194.0000 0.9956 3.1400 0.4800 9.4000
5.0000 6.6000 0.2800 0.4200 8.2000 0.0440 60.0000 196.0000 0.9956 3.1400 0.4800 9.4000
5.0000 6.6000 0.2900 0.4400 9.0000 0.0530 62.0000 178.0000 0.9969 3.0200 0.4500 8.9000
5.0000 6.6000 0.3000 0.2400 1.2000 0.0340 17.0000 121.0000 0.9933 3.1300 0.3600 9.2000
5.0000 6.6000 0.3000 0.3000 4.8000 0.1700 60.0000 166.0000 0.9946 3.1800 0.4700 9.4000
5.0000 6.6000 0.3000 0.4500 8.0000 0.0380 54.0000 200.0000 0.9956 3.1800 0.4800 9.5000
5.0000 6.6000 0.3000 0.7400 4.6000 0.0410 36.0000 159.0000 0.9946 3.2100 0.4500 9.9000
5.0000 6.6000 0.3100 0.0700 1.5000 0.0330 55.0000 144.0000 0.9921 3.1600 0.4200 10.0000
5.0000 6.6000 0.3100 0.3800 16.0500 0.0580 16.0000 165.0000 0.9997 3.3800 0.6000 9.2000
5.0000 6.6000 0.3100 0.4900 7.7000 0.0500 52.0000 220.0000 0.9964 3.1200 0.4500 8.8000
5.0000 6.6000 0.3200 0.2400 1.3000 0.0600 42.5000 204.0000 0.9951 3.5900 0.5100 9.2000
5.0000 6.6000 0.3200 0.2600 7.7000 0.0540 56.0000 209.0000 0.9961 3.1700 0.4500 8.8000
5.0000 6.6000 0.3200 0.2700 10.9000 0.0410 37.0000 146.0000 0.9963 3.2400 0.4700 10.0000
5.0000 6.6000 0.3200 0.3300 2.5000 0.0520 40.0000 210.0000 0.9932 3.1500 0.6000 10.0000
5.0000 6.6000 0.3200 0.3300 2.5000 0.0520 40.0000 219.5000 0.9932 3.1500 0.6000 10.0000
5.0000 6.6000 0.3200 0.3600 8.0000 0.0470 57.0000 168.0000 0.9949 3.1500 0.4600 9.6000
5.0000 6.6000 0.3200 0.4100 7.2000 0.0480 55.0000 178.0000 0.9954 3.2000 0.4600 9.4000
5.0000 6.6000 0.3200 0.4700 15.6000 0.0630 27.0000 173.0000 0.9987 3.1800 0.5600 9.0000
5.0000 6.6000 0.3250 0.4900 7.7000 0.0490 53.0000 217.0000 0.9960 3.1600 0.4000 9.3000
5.0000 6.6000 0.3300 0.2400 16.0500 0.0450 31.0000 147.0000 0.9982 3.0800 0.5200 9.2000
5.0000 6.6000 0.3300 0.3200 15.6000 0.0540 62.0000 227.0000 0.9973 3.2500 0.5600 10.4000
5.0000 6.6000 0.3400 0.1800 6.4000 0.0820 47.0000 240.0000 0.9971 3.4200 0.4800 9.2000
5.0000 6.6000 0.3400 0.2000 1.0000 0.0530 26.0000 112.0000 0.9934 3.3200 0.5500 9.1000
5.0000 6.6000 0.3400 0.3400 2.6000 0.0510 40.5000 210.0000 0.9931 3.1500 0.6100 10.0000
5.0000 6.6000 0.3500 0.3400 4.9000 0.0320 9.0000 125.0000 0.9925 3.3200 0.8100 12.0000
5.0000 6.6000 0.3600 0.2400 0.9000 0.0380 15.0000 72.0000 0.9907 3.2300 0.3900 11.0000
5.0000 6.6000 0.3600 0.5200 10.1000 0.0500 29.0000 140.0000 0.9963 3.0700 0.4000 9.4000
5.0000 6.6000 0.3600 0.5200 11.3000 0.0460 8.0000 110.0000 0.9966 3.0700 0.4600 9.4000
5.0000 6.6000 0.3700 0.0700 1.4000 0.0480 58.0000 144.0000 0.9922 3.1700 0.3800 10.0000
5.0000 6.6000 0.3700 0.2400 2.0000 0.0640 23.0000 120.0000 0.9946 3.3200 0.5400 9.4000
5.0000 6.6000 0.3800 0.2900 2.4000 0.1360 15.0000 93.0000 0.9934 3.1800 0.6000 9.5000
5.0000 6.6000 0.3800 0.3600 9.2000 0.0610 42.0000 214.0000 0.9976 3.3100 0.5600 9.4000
5.0000 6.6000 0.4000 0.4600 6.2000 0.0560 42.0000 241.0000 0.9968 3.5000 0.6000 9.9000
5.0000 6.6000 0.4100 0.2400 4.9000 0.1580 47.0000 144.0000 0.9947 3.1700 0.4900 9.4000
5.0000 6.6000 0.4100 0.3100 1.6000 0.0420 18.0000 101.0000 0.9919 3.1300 0.4100 10.5000
5.0000 6.6000 0.4200 0.1300 12.8000 0.0440 26.0000 158.0000 0.9977 3.2400 0.4700 9.0000
5.0000 6.6000 0.4500 0.4300 7.2000 0.0640 31.0000 186.0000 0.9954 3.1200 0.4400 9.4000
5.0000 6.6000 0.4600 0.4900 7.4000 0.0520 19.0000 184.0000 0.9956 3.1100 0.3800 9.0000
5.0000 6.6000 0.5450 0.0400 2.5000 0.0310 48.0000 111.0000 0.9906 3.1400 0.3200 11.9000
5.0000 6.6000 0.5500 0.0100 2.7000 0.0340 56.0000 122.0000 0.9906 3.1500 0.3000 11.9000
5.0000 6.6000 0.5600 0.1500 10.0000 0.0370 38.0000 157.0000 0.9964 3.2800 0.5200 9.4000
5.0000 6.6000 0.5600 0.2200 8.9000 0.0340 27.0000 133.0000 0.9968 3.2000 0.5100 9.1000
5.0000 6.6000 0.5800 0.3000 5.1000 0.0570 30.0000 123.0000 0.9949 3.2400 0.3800 9.0000
5.0000 6.6000 0.6200 0.2000 8.7000 0.0460 81.0000 224.0000 0.9960 3.1700 0.4400 9.3000
5.0000 6.6000 0.7800 0.5000 1.5000 0.0450 30.0000 133.0000 0.9910 3.2500 0.4800 11.7000
5.0000 6.6000 0.9050 0.1900 0.8000 0.0480 17.0000 204.0000 0.9934 3.3400 0.5600 10.0000
5.0000 6.7000 0.1400 0.4600 1.6000 0.0360 15.0000 92.0000 0.9926 3.3700 0.4900 10.9000
5.0000 6.7000 0.1700 0.2700 1.4000 0.0320 39.0000 149.0000 0.9925 3.4000 0.5200 10.5000
5.0000 6.7000 0.1800 0.2500 14.3000 0.0480 79.0000 149.0000 0.9975 3.1200 0.3700 9.7000
5.0000 6.7000 0.1800 0.3000 6.4000 0.0480 40.0000 251.0000 0.9956 3.2900 0.5200 10.0000
5.0000 6.7000 0.2000 0.3700 1.6500 0.0250 42.0000 103.0000 0.9902 3.1100 0.4500 11.4000
5.0000 6.7000 0.2300 0.1700 1.3000 0.0610 14.0000 100.0000 0.9925 3.0700 0.5500 9.5000
5.0000 6.7000 0.2300 0.4200 11.2000 0.0470 52.0000 171.0000 0.9976 3.5400 0.7400 10.4000
5.0000 6.7000 0.2400 0.2600 12.6000 0.0530 44.0000 182.0000 0.9980 3.4200 0.4200 9.7000
5.0000 6.7000 0.2400 0.2900 14.9000 0.0530 55.0000 136.0000 0.9984 3.0300 0.5200 9.0000
5.0000 6.7000 0.2400 0.3200 10.3000 0.0790 37.0000 122.0000 0.9966 3.0200 0.4500 8.8000
5.0000 6.7000 0.2400 0.3300 12.3000 0.0460 31.0000 145.0000 0.9983 3.3600 0.4000 9.5000
5.0000 6.7000 0.2400 0.3500 13.1000 0.0500 64.0000 205.0000 0.9970 3.1500 0.5000 9.5000
5.0000 6.7000 0.2400 0.4100 2.9000 0.0390 48.0000 122.0000 0.9905 3.2500 0.4300 12.0000
5.0000 6.7000 0.2500 0.1300 1.2000 0.0410 81.0000 174.0000 0.9920 3.1400 0.4200 9.8000
5.0000 6.7000 0.2500 0.2300 7.2000 0.0380 61.0000 220.0000 0.9952 3.1400 0.3500 9.5000
5.0000 6.7000 0.2500 0.3100 1.3500 0.0610 30.5000 218.0000 0.9939 3.1600 0.5300 9.5000
5.0000 6.7000 0.2500 0.3600 8.6000 0.0370 63.0000 206.0000 0.9955 3.1800 0.5000 9.6000
5.0000 6.7000 0.2600 0.2600 4.0000 0.0790 35.5000 216.0000 0.9956 3.3100 0.6800 9.5000
5.0000 6.7000 0.2600 0.2600 4.1000 0.0730 36.0000 202.0000 0.9956 3.3000 0.6700 9.5000
5.0000 6.7000 0.2600 0.4900 8.1000 0.0520 48.0000 197.0000 0.9956 3.1900 0.4800 9.5000
5.0000 6.7000 0.2600 0.5100 8.0000 0.0620 50.0000 194.0000 0.9954 3.1300 0.5000 9.6000
5.0000 6.7000 0.2650 0.2200 8.6000 0.0480 54.0000 198.0000 0.9955 3.2500 0.4100 10.2000
5.0000 6.7000 0.2700 0.2500 8.0000 0.0530 54.0000 202.0000 0.9961 3.2200 0.4300 9.3000
5.0000 6.7000 0.2700 0.3100 15.7000 0.0360 44.0000 179.0000 0.9979 3.2600 0.5600 9.6000
5.0000 6.7000 0.2800 0.1400 1.4000 0.0430 64.0000 159.0000 0.9920 3.1700 0.3900 10.0000
5.0000 6.7000 0.2900 0.4500 14.3000 0.0540 30.0000 181.0000 0.9987 3.1400 0.5700 9.1000
5.0000 6.7000 0.3000 0.4400 18.5000 0.0570 65.0000 224.0000 0.9996 3.1100 0.5300 9.1000
5.0000 6.7000 0.3000 0.4400 18.7500 0.0570 65.0000 224.0000 0.9996 3.1100 0.5300 9.1000
5.0000 6.7000 0.3000 0.7400 5.0000 0.0380 35.0000 157.0000 0.9945 3.2100 0.4600 9.9000
5.0000 6.7000 0.3100 0.0800 1.3000 0.0380 58.0000 147.0000 0.9922 3.1800 0.4600 10.0000
5.0000 6.7000 0.3100 0.0900 1.4000 0.0390 53.0000 141.0000 0.9921 3.1200 0.4400 10.1000
5.0000 6.7000 0.3100 0.3200 14.5000 0.0380 6.0000 79.0000 0.9941 3.1400 0.3400 12.5000
5.0000 6.7000 0.3100 0.3400 6.8000 0.0590 51.0000 215.0000 0.9954 3.3300 0.5600 10.3000
5.0000 6.7000 0.3100 0.4200 6.4000 0.0570 25.0000 148.0000 0.9955 3.1600 0.4500 9.6000
5.0000 6.7000 0.3100 0.4400 6.7000 0.0540 29.0000 160.0000 0.9952 3.0400 0.4400 9.6000
5.0000 6.7000 0.3250 0.8200 1.2000 0.1520 49.0000 120.0000 0.9931 2.9900 0.3800 9.2000
5.0000 6.7000 0.3300 0.4200 6.4000 0.0580 27.0000 151.0000 0.9954 3.1600 0.4400 9.6000
5.0000 6.7000 0.3400 0.3000 15.6000 0.0540 51.0000 196.0000 0.9982 3.1900 0.4900 9.3000
5.0000 6.7000 0.3400 0.3100 16.4000 0.0510 20.0000 146.0000 0.9983 3.0600 0.5400 9.1000
5.0000 6.7000 0.3400 0.5400 16.3000 0.0470 44.0000 181.0000 0.9987 3.0400 0.5600 8.8000
5.0000 6.7000 0.3500 0.4800 8.8000 0.0560 35.0000 167.0000 0.9963 3.0400 0.4700 9.4000
5.0000 6.7000 0.3900 0.2400 2.7000 0.0170 22.0000 80.0000 0.9908 3.0300 0.3700 11.5000
5.0000 6.7000 0.4000 0.2200 8.8000 0.0520 24.0000 113.0000 0.9958 3.2200 0.4500 9.4000
5.0000 6.7000 0.4100 0.0100 2.8000 0.0480 39.0000 137.0000 0.9942 3.2400 0.3500 9.5000
5.0000 6.7000 0.4100 0.3400 9.2000 0.0490 29.0000 150.0000 0.9968 3.2200 0.5100 9.1000
5.0000 6.7000 0.4200 0.3900 12.1000 0.0400 61.0000 248.0000 0.9979 3.3100 0.5800 9.7000
5.0000 6.7000 0.4200 0.4600 9.7000 0.0540 67.0000 234.0000 0.9985 3.2300 0.5000 9.0000
5.0000 6.7000 0.4300 0.2300 5.0000 0.1570 49.0000 145.0000 0.9947 3.1700 0.4900 9.4000
5.0000 6.7000 0.4700 0.3400 8.9000 0.0430 31.0000 172.0000 0.9964 3.2200 0.6000 9.2000
5.0000 6.7000 0.5000 0.3600 11.5000 0.0960 18.0000 92.0000 0.9964 3.1100 0.4900 9.6000
5.0000 6.7000 0.5000 0.3800 7.5000 0.0460 26.0000 175.0000 0.9966 3.3200 0.5400 9.6000
5.0000 6.7000 0.5000 0.6300 13.4000 0.0780 81.0000 238.0000 0.9988 3.0800 0.4400 9.2000
5.0000 6.7000 0.5400 0.2800 5.4000 0.0600 21.0000 105.0000 0.9949 3.2700 0.3700 9.0000
5.0000 6.7000 0.6100 0.2100 1.6500 0.1170 40.0000 240.0000 0.9938 3.1100 0.5700 9.3000
5.0000 6.7000 0.6200 0.2400 1.1000 0.0390 6.0000 62.0000 0.9934 3.4100 0.3200 10.4000
5.0000 6.8000 0.1700 0.3200 1.4000 0.0400 35.0000 106.0000 0.9903 3.1600 0.6600 12.0000
5.0000 6.8000 0.1800 0.2100 5.4000 0.0530 34.0000 104.0000 0.9944 3.3000 0.4300 9.4000
5.0000 6.8000 0.1800 0.3700 1.6000 0.0550 47.0000 154.0000 0.9934 3.0800 0.4500 9.1000
5.0000 6.8000 0.1800 0.4600 1.4000 0.0640 37.0000 160.0000 0.9924 3.3700 0.4500 11.1000
5.0000 6.8000 0.1900 0.2300 5.1000 0.0340 71.0000 204.0000 0.9942 3.2300 0.6900 10.1000
5.0000 6.8000 0.2000 0.2500 6.2000 0.0520 22.0000 106.0000 0.9935 3.0900 0.5400 10.8000
5.0000 6.8000 0.2100 0.2700 18.1500 0.0420 41.0000 146.0000 1.0001 3.3000 0.3600 8.7000
5.0000 6.8000 0.2100 0.3600 18.1000 0.0460 32.0000 133.0000 1.0000 3.2700 0.4800 8.8000
5.0000 6.8000 0.2100 0.5500 14.6000 0.0530 34.0000 159.0000 0.9980 2.9300 0.4400 9.2000
5.0000 6.8000 0.2100 0.6200 6.4000 0.0410 7.0000 113.0000 0.9936 2.9600 0.5900 10.2000
5.0000 6.8000 0.2200 0.2600 1.2000 0.0410 29.0000 182.0000 0.9910 3.0400 0.3500 11.2000
5.0000 6.8000 0.2200 0.3000 13.6000 0.0550 50.0000 180.0000 0.9984 3.4400 0.3900 9.8000
5.0000 6.8000 0.2200 0.3600 1.2000 0.0520 38.0000 127.0000 0.9933 3.0400 0.5400 9.2000
5.0000 6.8000 0.2400 0.3100 18.3000 0.0460 40.0000 142.0000 1.0000 3.3000 0.4100 8.7000
5.0000 6.8000 0.2400 0.3400 4.6000 0.0320 37.0000 135.0000 0.9927 3.2000 0.3900 10.6000
5.0000 6.8000 0.2400 0.4900 19.3000 0.0570 55.0000 247.0000 1.0006 3.0000 0.5600 8.7000
5.0000 6.8000 0.2500 0.1800 1.4000 0.0560 13.0000 137.0000 0.9935 3.1100 0.4200 9.5000
5.0000 6.8000 0.2500 0.2400 1.6000 0.0450 39.0000 164.0000 0.9940 3.5300 0.5800 10.8000
5.0000 6.8000 0.2500 0.2700 10.7000 0.0760 47.0000 154.0000 0.9967 3.0500 0.3800 9.0000
5.0000 6.8000 0.2600 0.2200 4.8000 0.0410 110.0000 198.0000 0.9944 3.2900 0.6700 10.6000
5.0000 6.8000 0.2600 0.2200 7.7000 0.0470 57.0000 210.0000 0.9959 3.1000 0.4700 9.0000
5.0000 6.8000 0.2600 0.2400 1.9000 0.0430 70.0000 154.0000 0.9927 3.1800 0.5200 10.5000
5.0000 6.8000 0.2600 0.2400 7.8000 0.0520 54.0000 214.0000 0.9961 3.1300 0.4700 8.9000
5.0000 6.8000 0.2600 0.2900 16.9500 0.0560 48.0000 179.0000 0.9998 3.4500 0.4000 9.6000
5.0000 6.8000 0.2600 0.4000 7.5000 0.0460 45.0000 179.0000 0.9958 3.2000 0.4900 9.3000
5.0000 6.8000 0.2600 0.4300 11.7500 0.0450 53.0000 198.0000 0.9969 3.2600 0.5500 9.5000
5.0000 6.8000 0.2600 0.4400 8.2000 0.0460 52.0000 183.0000 0.9958 3.2000 0.5100 9.4000
5.0000 6.8000 0.2600 0.4600 8.3000 0.0370 49.0000 173.0000 0.9960 3.1700 0.4700 9.3000
5.0000 6.8000 0.2600 0.5600 11.9000 0.0430 64.0000 226.0000 0.9970 3.0200 0.6300 9.3000
5.0000 6.8000 0.2700 0.1200 1.3000 0.0400 87.0000 168.0000 0.9920 3.1800 0.4100 10.0000
5.0000 6.8000 0.2700 0.2200 17.8000 0.0340 16.0000 116.0000 0.9989 3.0700 0.5300 9.2000
5.0000 6.8000 0.2700 0.2200 8.1000 0.0340 55.0000 203.0000 0.9961 3.1900 0.5200 8.9000
5.0000 6.8000 0.2700 0.2600 16.1000 0.0490 55.0000 196.0000 0.9984 3.1500 0.5000 9.3000
5.0000 6.8000 0.2800 0.3400 7.5000 0.0350 34.0000 177.0000 0.9969 3.3300 0.4300 9.1000
5.0000 6.8000 0.2800 0.3700 7.0000 0.0570 35.0000 208.0000 0.9973 3.5700 0.5500 10.2000
5.0000 6.8000 0.2800 0.3900 1.4000 0.0360 15.0000 115.0000 0.9918 3.2700 0.7200 11.7000
5.0000 6.8000 0.2800 0.4000 22.0000 0.0480 48.0000 167.0000 1.0010 2.9300 0.5000 8.7000
5.0000 6.8000 0.2800 0.4400 11.5000 0.0400 58.0000 223.0000 0.9969 3.2200 0.5600 9.5000
5.0000 6.8000 0.2900 0.3400 3.5000 0.0540 26.0000 189.0000 0.9949 3.4200 0.5800 10.4000
5.0000 6.8000 0.2900 0.5000 13.3000 0.0530 48.0000 194.0000 0.9974 3.0900 0.4500 9.4000
5.0000 6.8000 0.2900 0.5600 11.9000 0.0430 66.0000 230.0000 0.9972 3.0200 0.6300 9.3000
5.0000 6.8000 0.3000 0.2200 6.2000 0.0600 41.0000 190.0000 0.9986 3.1800 0.5100 9.2000
5.0000 6.8000 0.3000 0.2300 4.6000 0.0610 50.5000 238.5000 0.9958 3.3200 0.6000 9.5000
5.0000 6.8000 0.3000 0.2400 6.6000 0.1230 35.0000 116.0000 0.9953 3.0700 0.4800 9.4000
5.0000 6.8000 0.3000 0.3300 12.8000 0.0410 60.0000 168.0000 0.9966 3.1000 0.5600 9.8000
5.0000 6.8000 0.3100 0.0900 1.4000 0.0400 56.0000 145.0000 0.9922 3.1900 0.4600 10.0000
5.0000 6.8000 0.3100 0.1900 3.5000 0.0860 30.0000 130.0000 0.9930 2.8300 0.4400 9.6000
5.0000 6.8000 0.3100 0.3200 7.6000 0.0520 35.0000 143.0000 0.9959 3.1400 0.3800 9.0000
5.0000 6.8000 0.3100 0.4200 6.9000 0.0460 50.0000 173.0000 0.9958 3.1900 0.4600 9.0000
5.0000 6.8000 0.3200 0.1800 7.5000 0.0410 71.0000 223.0000 0.9959 3.1400 0.4100 8.9000
5.0000 6.8000 0.3200 0.3000 1.0000 0.0490 22.0000 113.0000 0.9929 3.2400 0.6100 10.2000
5.0000 6.8000 0.3200 0.3400 6.0000 0.0500 5.0000 129.0000 0.9953 3.1900 0.4000 9.1000
5.0000 6.8000 0.3200 0.4300 1.6000 0.0500 4.0000 65.0000 0.9935 3.2700 0.4700 10.7000
5.0000 6.8000 0.3300 0.4400 7.0000 0.0500 29.0000 155.0000 0.9955 3.1400 0.4200 9.5000
5.0000 6.8000 0.3400 0.1000 1.4000 0.0490 29.0000 118.0000 0.9936 3.2100 0.4100 9.5000
5.0000 6.8000 0.3400 0.4400 6.6000 0.0520 28.0000 156.0000 0.9955 3.1400 0.4100 9.6000
5.0000 6.8000 0.3400 0.6900 1.3000 0.0580 12.0000 171.0000 0.9931 3.0600 0.4700 9.7000
5.0000 6.8000 0.3500 0.4400 6.5000 0.0560 31.0000 161.0000 0.9952 3.1400 0.4400 9.5000
5.0000 6.8000 0.3500 0.5300 10.1000 0.0530 37.0000 151.0000 0.9963 3.0700 0.4000 9.4000
5.0000 6.8000 0.3600 0.3200 1.6000 0.0390 10.0000 124.0000 0.9948 3.3000 0.6700 9.6000
5.0000 6.8000 0.3700 0.4700 11.2000 0.0710 44.0000 136.0000 0.9968 2.9800 0.8800 9.2000
5.0000 6.8000 0.3700 0.5100 11.8000 0.0440 62.0000 163.0000 0.9976 3.1900 0.4400 8.8000
5.0000 6.8000 0.3900 0.3100 14.3500 0.0430 28.0000 162.0000 0.9988 3.1700 0.5400 9.1000
5.0000 6.8000 0.3900 0.3500 11.6000 0.0440 57.0000 220.0000 0.9978 3.0700 0.5300 9.3000
5.0000 6.8000 0.4100 0.3000 8.8000 0.0450 28.0000 131.0000 0.9953 3.1200 0.5900 9.9000
5.0000 6.8000 0.4400 0.2000 16.0000 0.0650 61.0000 186.0000 0.9988 3.1300 0.4500 8.6000
5.0000 6.8000 0.4500 0.3000 11.8000 0.0940 23.0000 97.0000 0.9970 3.0900 0.4400 9.6000
5.0000 6.8000 0.4600 0.2600 6.3000 0.1470 49.0000 159.0000 0.9943 3.1400 0.4700 10.0000
5.0000 6.8000 0.5100 0.3000 4.2000 0.0660 38.0000 165.0000 0.9945 3.2000 0.4200 9.1000
5.0000 6.8000 0.5700 0.2900 2.2000 0.0400 15.0000 77.0000 0.9938 3.3200 0.7400 10.2000
5.0000 6.9000 0.1700 0.2500 1.6000 0.0470 34.0000 132.0000 0.9914 3.1600 0.4800 11.4000
5.0000 6.9000 0.1800 0.3300 1.0000 0.0540 24.0000 164.0000 0.9926 3.4200 0.5100 10.5000
5.0000 6.9000 0.1800 0.3800 6.5000 0.0390 20.0000 110.0000 0.9943 3.1000 0.4200 10.5000
5.0000 6.9000 0.1900 0.3300 1.6000 0.0430 63.0000 149.0000 0.9925 3.4400 0.5200 10.8000
5.0000 6.9000 0.1900 0.3500 5.0000 0.0670 32.0000 150.0000 0.9950 3.3600 0.4800 9.8000
5.0000 6.9000 0.1900 0.3800 1.1500 0.0230 30.0000 105.0000 0.9905 3.1100 0.3800 11.4000
5.0000 6.9000 0.2000 0.4000 7.7000 0.0320 51.0000 176.0000 0.9939 3.2200 0.2700 11.4000
5.0000 6.9000 0.2000 0.4100 1.1000 0.0600 36.0000 104.0000 0.9932 2.9900 0.3900 9.2000
5.0000 6.9000 0.2100 0.4900 1.4000 0.0410 15.0000 164.0000 0.9927 3.2500 0.6300 11.0000
5.0000 6.9000 0.2300 0.2400 14.2000 0.0530 19.0000 94.0000 0.9982 3.1700 0.5000 9.6000
5.0000 6.9000 0.2300 0.3200 16.4000 0.0450 62.0000 153.0000 0.9972 3.2200 0.4200 10.5000
5.0000 6.9000 0.2400 0.4000 15.4000 0.0520 81.0000 198.0000 0.9986 3.2000 0.6900 9.4000
5.0000 6.9000 0.2500 0.2400 1.8000 0.0530 6.0000 121.0000 0.9930 3.2300 0.7000 11.4000
5.0000 6.9000 0.2600 0.3300 12.6000 0.0510 59.0000 173.0000 0.9980 3.3900 0.3800 9.9000
5.0000 6.9000 0.2700 0.4900 23.5000 0.0570 59.0000 235.0000 1.0024 2.9800 0.4700 8.6000
5.0000 6.9000 0.2800 0.2200 10.0000 0.0520 36.0000 131.0000 0.9970 3.0800 0.4600 9.6000
5.0000 6.9000 0.2800 0.3700 9.1000 0.0370 16.0000 76.0000 0.9948 3.0500 0.5400 11.1000
5.0000 6.9000 0.2800 0.4000 8.2000 0.0360 15.0000 95.0000 0.9944 3.1700 0.3300 10.2000
5.0000 6.9000 0.2800 0.4100 1.4000 0.0160 6.0000 55.0000 0.9888 3.1600 0.4000 13.4000
5.0000 6.9000 0.2900 0.2300 8.6000 0.0560 56.0000 215.0000 0.9967 3.1700 0.4400 8.8000
5.0000 6.9000 0.2900 0.3200 5.8000 0.0400 16.0000 112.0000 0.9930 3.0400 0.5800 11.2000
5.0000 6.9000 0.2900 0.4000 19.4500 0.0430 36.0000 156.0000 0.9996 2.9300 0.4700 8.9000
5.0000 6.9000 0.2900 0.4100 7.8000 0.0460 52.0000 171.0000 0.9954 3.1200 0.5100 9.6000
5.0000 6.9000 0.3000 0.2100 15.7000 0.0560 49.0000 159.0000 0.9983 3.1100 0.4800 9.0000
5.0000 6.9000 0.3000 0.2100 7.2000 0.0450 54.0000 190.0000 0.9960 3.2200 0.4800 9.4000
5.0000 6.9000 0.3200 0.1300 7.8000 0.0420 11.0000 117.0000 0.9960 3.2300 0.3700 9.2000
5.0000 6.9000 0.3200 0.1500 8.1000 0.0460 51.0000 180.0000 0.9958 3.1300 0.4500 8.9000
5.0000 6.9000 0.3200 0.1700 7.6000 0.0420 69.0000 219.0000 0.9959 3.1300 0.4000 8.9000
5.0000 6.9000 0.3300 0.2800 1.3000 0.0510 37.0000 187.0000 0.9927 3.2700 0.6000 10.3000
5.0000 6.9000 0.3300 0.3100 7.7000 0.0400 29.0000 135.0000 0.9923 3.1100 0.5700 12.3000
5.0000 6.9000 0.3400 0.3600 1.4000 0.0320 13.0000 145.0000 0.9921 3.0700 0.5200 9.8000
5.0000 6.9000 0.3400 0.7400 11.2000 0.0690 44.0000 150.0000 0.9968 3.0000 0.8100 9.2000
5.0000 6.9000 0.3500 0.5500 11.9500 0.0380 22.0000 111.0000 0.9969 3.1100 0.2900 9.7000
5.0000 6.9000 0.3500 0.7400 1.0000 0.0440 18.0000 132.0000 0.9920 3.1300 0.5500 10.2000
5.0000 6.9000 0.3700 0.2300 9.5000 0.0570 54.0000 166.0000 0.9957 3.2300 0.4200 10.0000
5.0000 6.9000 0.3800 0.2500 9.8000 0.0400 28.0000 191.0000 0.9971 3.2800 0.6100 9.2000
5.0000 6.9000 0.3800 0.2800 8.3000 0.0620 22.0000 166.0000 0.9951 3.1600 0.7200 10.6000
5.0000 6.9000 0.3800 0.3800 13.1000 0.1120 14.0000 94.0000 0.9979 3.0200 0.4800 9.2000
5.0000 6.9000 0.4000 0.1700 12.9000 0.0330 59.0000 186.0000 0.9975 3.0800 0.4900 9.4000
5.0000 6.9000 0.4000 0.2200 5.9500 0.0810 76.0000 303.0000 0.9970 3.4000 0.5700 9.4000
5.0000 6.9000 0.4000 0.3700 8.9000 0.0530 36.0000 148.0000 0.9960 3.1600 0.5000 9.3000
5.0000 6.9000 0.4000 0.4200 6.2000 0.0660 41.0000 176.0000 0.9955 3.1200 0.5400 9.4000
5.0000 6.9000 0.4000 0.4300 6.2000 0.0650 42.0000 178.0000 0.9955 3.1100 0.5300 9.4000
5.0000 6.9000 0.4000 0.5600 11.2000 0.0430 40.0000 142.0000 0.9975 3.1400 0.4600 8.7000
5.0000 6.9000 0.4100 0.3300 10.1000 0.0430 28.0000 152.0000 0.9968 3.2000 0.5200 9.4000
5.0000 6.9000 0.4200 0.2000 15.4000 0.0430 57.0000 201.0000 0.9985 3.0800 0.5400 9.4000
5.0000 6.9000 0.4300 0.2800 9.4000 0.0560 29.0000 183.0000 0.9959 3.1700 0.4300 9.4000
5.0000 6.9000 0.4400 0.1800 11.8000 0.0510 26.0000 126.0000 0.9975 3.2300 0.4800 9.1000
5.0000 6.9000 0.4900 0.2400 1.2000 0.0490 13.0000 125.0000 0.9932 3.1700 0.5100 9.4000
5.0000 6.9000 0.5400 0.3200 13.2000 0.0500 53.0000 236.0000 0.9973 3.2000 0.5000 9.6000
5.0000 6.9000 0.5600 0.2600 10.9000 0.0600 55.0000 193.0000 0.9969 3.2100 0.4400 9.4000
5.0000 6.9000 0.6150 0.4200 12.0000 0.0670 24.0000 131.0000 0.9973 3.1900 0.3400 9.3000
5.0000 7.0000 0.1200 0.1900 4.9000 0.0550 27.0000 127.0000 0.9953 3.2900 0.4100 9.4000
5.0000 7.0000 0.1200 0.2800 6.3000 0.0570 17.0000 103.0000 0.9957 3.5000 0.4400 9.6000
5.0000 7.0000 0.1400 0.2800 1.3000 0.0260 10.0000 56.0000 0.9935 3.4600 0.4500 9.9000
5.0000 7.0000 0.1500 0.3400 1.4000 0.0390 21.0000 177.0000 0.9927 3.3200 0.6200 10.8000
5.0000 7.0000 0.1600 0.3200 8.3000 0.0450 38.0000 126.0000 0.9958 3.2100 0.3400 9.2000
5.0000 7.0000 0.1600 0.7300 1.0000 0.1380 58.0000 150.0000 0.9936 3.0800 0.3000 9.2000
5.0000 7.0000 0.1800 0.3700 1.5000 0.0430 16.0000 104.0000 0.9922 3.1800 0.5000 10.8000
5.0000 7.0000 0.2000 0.3000 6.1000 0.0370 31.0000 120.0000 0.9939 3.2400 0.5100 10.8000
5.0000 7.0000 0.2000 0.7400 0.8000 0.0440 19.0000 163.0000 0.9931 3.4600 0.5300 10.2000
5.0000 7.0000 0.2100 0.2800 7.5000 0.0700 45.0000 185.0000 0.9966 3.3400 0.5500 9.4000
5.0000 7.0000 0.2100 0.3400 8.0000 0.0570 19.0000 101.0000 0.9954 2.9900 0.5900 9.4000
5.0000 7.0000 0.2300 0.2800 2.7000 0.0530 16.0000 92.0000 0.9937 3.1800 0.5600 9.3000
5.0000 7.0000 0.2300 0.3600 13.0000 0.0510 72.0000 177.0000 0.9972 3.1600 0.4900 9.8000
5.0000 7.0000 0.2300 0.4200 1.1000 0.0620 35.0000 100.0000 0.9932 3.0400 0.4000 9.2000
5.0000 7.0000 0.2300 0.4200 18.0500 0.0500 35.0000 144.0000 0.9999 3.2200 0.4200 8.8000
5.0000 7.0000 0.2400 0.3000 6.7000 0.0390 37.0000 125.0000 0.9944 3.2000 0.3900 9.9000
5.0000 7.0000 0.2400 0.5100 11.0000 0.0290 55.0000 227.0000 0.9965 3.0300 0.6100 9.5000
5.0000 7.0000 0.2500 0.2900 15.2000 0.0470 40.0000 171.0000 0.9982 3.2200 0.4500 9.3000
5.0000 7.0000 0.2700 0.2900 3.9000 0.0590 28.0000 199.0000 0.9961 3.5400 0.5900 10.3000
5.0000 7.0000 0.2700 0.4100 18.7500 0.0420 34.0000 157.0000 1.0002 2.9600 0.5000 9.1000
5.0000 7.0000 0.2800 0.2800 1.4000 0.0390 12.0000 83.0000 0.9917 3.1800 0.6500 11.1000
5.0000 7.0000 0.2900 0.3300 0.9000 0.0410 20.0000 117.0000 0.9905 3.2100 0.5000 11.4000
5.0000 7.0000 0.2900 0.5400 10.7000 0.0460 59.0000 234.0000 0.9966 3.0500 0.6100 9.5000
5.0000 7.0000 0.3000 0.2700 1.5000 0.0760 24.0000 145.0000 0.9934 3.1000 0.5200 10.1000
5.0000 7.0000 0.3000 0.2800 2.2000 0.0420 21.0000 177.0000 0.9917 3.2000 0.5700 11.4000
5.0000 7.0000 0.3100 0.3500 1.6000 0.0630 13.0000 119.0000 0.9918 3.2200 0.5000 10.7000
5.0000 7.0000 0.3100 0.3900 7.5000 0.0550 42.0000 218.0000 0.9965 3.3700 0.5400 10.3000
5.0000 7.0000 0.3100 0.5200 1.7000 0.0290 5.0000 61.0000 0.9918 3.0700 0.4300 10.4000
5.0000 7.0000 0.3400 0.1000 3.5000 0.0440 17.0000 63.0000 0.9937 3.0100 0.3900 9.2000
5.0000 7.0000 0.3400 0.3900 6.9000 0.0660 43.0000 162.0000 0.9956 3.1100 0.5300 9.5000
5.0000 7.0000 0.3500 0.2400 1.9000 0.0400 21.0000 144.0000 0.9923 3.3500 0.3800 11.0000
5.0000 7.0000 0.3500 0.3100 1.8000 0.0690 15.0000 162.0000 0.9944 3.1800 0.4700 9.4000
5.0000 7.0000 0.3600 0.1400 11.6000 0.0430 35.0000 228.0000 0.9977 3.1300 0.5100 8.9000
5.0000 7.0000 0.3900 0.2100 10.7000 0.0980 13.0000 91.0000 0.9966 3.0300 0.4700 9.3000
5.0000 7.0000 0.3900 0.3100 5.3000 0.1690 32.0000 162.0000 0.9965 3.2000 0.4800 9.4000
5.0000 7.0000 0.4400 0.2400 12.1000 0.0560 68.0000 210.0000 0.9972 3.0500 0.5000 9.5000
5.0000 7.0000 0.4600 0.2000 16.7000 0.0460 50.0000 184.0000 0.9990 3.0800 0.5600 9.4000
5.0000 7.0000 0.4700 0.0700 1.1000 0.0350 17.0000 151.0000 0.9910 3.0200 0.3400 10.5000
5.0000 7.0000 0.4800 0.1200 4.5000 0.0500 23.0000 86.0000 0.9940 2.8600 0.3500 9.0000
5.0000 7.0000 0.5300 0.0200 1.0000 0.0360 39.0000 107.0000 0.9930 3.2000 0.3200 9.0000
5.0000 7.1000 0.1200 0.3200 9.6000 0.0540 64.0000 162.0000 0.9962 3.4000 0.4100 9.4000
5.0000 7.1000 0.1400 0.3500 1.4000 0.0390 24.0000 128.0000 0.9921 2.9700 0.6800 10.4000
5.0000 7.1000 0.1800 0.3900 14.5000 0.0510 48.0000 156.0000 0.9995 3.3500 0.7800 9.1000
5.0000 7.1000 0.2000 0.3700 1.5000 0.0490 28.0000 129.0000 0.9923 3.1500 0.5200 10.8000
5.0000 7.1000 0.2100 0.2700 8.6000 0.0560 26.0000 111.0000 0.9956 2.9500 0.5200 9.5000
5.0000 7.1000 0.2100 0.7200 1.6000 0.1670 65.0000 120.0000 0.9932 2.9700 0.5100 9.2000
5.0000 7.1000 0.2300 0.2800 1.9000 0.0460 33.0000 103.0000 0.9900 3.1200 0.3100 12.0000
5.0000 7.1000 0.2400 0.4100 17.8000 0.0460 39.0000 145.0000 0.9998 3.3200 0.3900 8.7000
5.0000 7.1000 0.2500 0.2800 1.2000 0.0400 31.0000 111.0000 0.9917 3.1800 0.5300 11.1000
5.0000 7.1000 0.2500 0.2800 1.6000 0.0520 46.0000 169.0000 0.9926 3.0500 0.4100 10.5000
5.0000 7.1000 0.2600 0.1900 8.2000 0.0510 53.0000 187.0000 0.9960 3.1600 0.5200 9.7000
5.0000 7.1000 0.2600 0.3000 2.0000 0.0310 13.0000 128.0000 0.9917 3.1900 0.4900 11.4000
5.0000 7.1000 0.2600 0.3200 16.2000 0.0440 31.0000 170.0000 0.9964 3.1700 0.3700 11.2000
5.0000 7.1000 0.2700 0.3100 18.2000 0.0460 55.0000 252.0000 1.0000 3.0700 0.5600 8.7000
5.0000 7.1000 0.2800 0.1900 7.8000 0.0400 48.0000 184.0000 0.9958 3.1600 0.5000 9.4000
5.0000 7.1000 0.2800 0.2600 1.9000 0.0490 12.0000 86.0000 0.9934 3.1500 0.3800 9.4000
5.0000 7.1000 0.2800 0.3100 1.5000 0.0530 20.0000 98.0000 0.9907 3.1500 0.5000 11.4000
5.0000 7.1000 0.2800 0.3500 3.5000 0.0280 35.0000 91.0000 0.9902 2.9600 0.3300 12.1000
5.0000 7.1000 0.2900 0.3000 16.0000 0.0360 58.0000 201.0000 0.9995 3.3000 0.6700 9.0000
5.0000 7.1000 0.3000 0.4900 1.6000 0.0450 31.0000 100.0000 0.9942 3.4000 0.5900 10.2000
5.0000 7.1000 0.3100 0.1700 1.0000 0.0420 21.0000 144.0000 0.9930 3.1300 0.4000 9.6000
5.0000 7.1000 0.3100 0.2500 11.2000 0.0480 32.0000 136.0000 0.9966 3.1400 0.4000 9.5000
5.0000 7.1000 0.3100 0.4700 13.6000 0.0560 54.0000 197.0000 0.9978 3.1000 0.4900 9.3000
5.0000 7.1000 0.3100 0.5000 14.5000 0.0590 6.0000 148.0000 0.9983 2.9400 0.4400 9.1000
5.0000 7.1000 0.3200 0.2400 13.1000 0.0500 52.0000 204.0000 0.9980 3.1000 0.4900 8.8000
5.0000 7.1000 0.3200 0.4000 1.5000 0.0340 13.0000 84.0000 0.9944 3.4200 0.6000 10.4000
5.0000 7.1000 0.3300 0.1800 6.3000 0.0940 27.0000 166.0000 0.9947 2.9000 0.4900 9.5000
5.0000 7.1000 0.3300 0.6400 13.2000 0.0560 12.0000 105.0000 0.9972 3.0500 0.3900 9.2000
5.0000 7.1000 0.3400 0.1500 1.2000 0.0530 61.0000 183.0000 0.9936 3.0900 0.4300 9.2000
5.0000 7.1000 0.3400 0.2000 6.1000 0.0630 47.0000 164.0000 0.9946 3.1700 0.4200 10.0000
5.0000 7.1000 0.3400 0.8600 1.4000 0.1740 36.0000 99.0000 0.9929 2.9200 0.5000 9.3000
5.0000 7.1000 0.3500 0.2400 15.4000 0.0550 46.0000 198.0000 0.9988 3.1200 0.4900 8.8000
5.0000 7.1000 0.3600 0.2000 1.6000 0.2710 24.0000 140.0000 0.9936 3.1100 0.6300 9.8000
5.0000 7.1000 0.3650 0.1400 1.2000 0.0550 24.0000 84.0000 0.9941 3.1500 0.4300 8.9000
5.0000 7.1000 0.3700 0.3200 1.4000 0.0370 27.0000 126.0000 0.9918 3.1900 0.6200 12.0000
5.0000 7.1000 0.3700 0.6700 10.5000 0.0450 49.0000 155.0000 0.9975 3.1600 0.4400 8.7000
5.0000 7.1000 0.3800 0.4000 2.2000 0.0420 54.0000 201.0000 0.9918 3.0300 0.5000 11.4000
5.0000 7.1000 0.3900 0.3500 12.5000 0.0440 26.0000 72.0000 0.9941 3.1700 0.2900 11.6000
5.0000 7.1000 0.4000 0.5200 1.3000 0.1480 45.0000 149.0000 0.9947 3.0800 0.5600 8.7000
5.0000 7.1000 0.4300 0.6100 11.8000 0.0450 54.0000 155.0000 0.9974 3.1100 0.4500 8.7000
5.0000 7.1000 0.4600 0.2300 13.7000 0.0450 44.0000 192.0000 0.9981 3.1100 0.5300 9.4000
5.0000 7.1000 0.4700 0.2400 6.0000 0.0440 11.0000 77.0000 0.9956 3.2100 0.5600 9.7000
5.0000 7.1000 0.8500 0.4900 8.7000 0.0280 40.0000 184.0000 0.9962 3.2200 0.3600 10.7000
5.0000 7.2000 0.1300 0.4600 1.3000 0.0440 48.0000 111.0000 0.9913 2.9700 0.4500 11.1000
5.0000 7.2000 0.1400 0.3500 1.2000 0.0360 15.0000 73.0000 0.9938 3.4600 0.3900 9.9000
5.0000 7.2000 0.1500 0.3300 1.1000 0.0270 16.0000 63.0000 0.9937 3.3700 0.4000 9.9000
5.0000 7.2000 0.1500 0.3900 1.8000 0.0430 21.0000 159.0000 0.9948 3.5200 0.4700 10.0000
5.0000 7.2000 0.1600 0.2600 7.1000 0.0540 41.0000 224.0000 0.9966 3.3800 0.5500 10.1000
5.0000 7.2000 0.1600 0.3500 1.2000 0.0310 27.0000 84.0000 0.9928 3.3300 0.3400 9.9000
5.0000 7.2000 0.1700 0.4100 1.6000 0.0520 24.0000 126.0000 0.9923 3.1900 0.4900 10.8000
5.0000 7.2000 0.1800 0.4100 1.2000 0.0480 41.0000 97.0000 0.9919 3.1400 0.4500 10.4000
5.0000 7.2000 0.1900 0.3900 1.2000 0.0360 32.0000 85.0000 0.9918 3.1600 0.5000 10.5000
5.0000 7.2000 0.2000 0.2200 1.6000 0.0440 17.0000 101.0000 0.9947 3.3700 0.5300 10.0000
5.0000 7.2000 0.2000 0.2500 4.5000 0.0440 31.0000 109.0000 0.9949 3.2300 0.3600 9.4000
5.0000 7.2000 0.2000 0.3800 1.0000 0.0370 21.0000 74.0000 0.9918 3.2100 0.3700 11.0000
5.0000 7.2000 0.2100 0.3600 15.7000 0.0450 68.0000 183.0000 0.9992 3.2500 0.7600 9.4000
5.0000 7.2000 0.2100 0.4100 1.3000 0.0360 33.0000 85.0000 0.9920 3.1700 0.5100 10.4000
5.0000 7.2000 0.2200 0.3500 5.5000 0.0540 37.0000 183.0000 0.9947 3.0800 0.5000 10.3000
5.0000 7.2000 0.2300 0.1900 13.7000 0.0520 47.0000 197.0000 0.9987 3.1200 0.5300 9.0000
5.0000 7.2000 0.2300 0.2500 18.8000 0.0850 19.0000 111.0000 1.0004 3.1000 0.5100 8.7000
5.0000 7.2000 0.2300 0.3300 12.7000 0.0490 50.0000 183.0000 0.9987 3.4100 0.4000 9.8000
5.0000 7.2000 0.2300 0.3800 6.1000 0.0670 20.0000 90.0000 0.9950 3.1700 0.7900 9.7000
5.0000 7.2000 0.2400 0.1900 7.7000 0.0450 53.0000 176.0000 0.9958 3.1700 0.3800 9.5000
5.0000 7.2000 0.2400 0.2700 11.4000 0.0340 40.0000 174.0000 0.9977 3.2000 0.4400 9.0000
5.0000 7.2000 0.2400 0.3000 1.6000 0.0480 27.0000 131.0000 0.9933 3.2500 0.4500 10.5000
5.0000 7.2000 0.2400 0.3400 1.1000 0.0450 3.0000 64.0000 0.9913 3.2300 0.5100 11.4000
5.0000 7.2000 0.2400 0.4000 17.8500 0.0490 50.0000 185.0000 1.0000 3.3400 0.4200 9.6000
5.0000 7.2000 0.2500 0.1900 8.0000 0.0440 51.0000 172.0000 0.9964 3.1600 0.4400 9.2000
5.0000 7.2000 0.2500 0.3200 1.5000 0.0470 27.0000 132.0000 0.9933 3.2600 0.4400 10.5000
5.0000 7.2000 0.2600 0.3200 10.4000 0.0620 23.0000 114.0000 0.9966 3.2300 0.4900 10.5000
5.0000 7.2000 0.2600 0.3800 1.5000 0.0610 12.0000 120.0000 0.9919 3.1800 0.4600 10.4000
5.0000 7.2000 0.2600 0.7400 13.6000 0.0500 56.0000 162.0000 0.9980 3.0300 0.4400 8.8000
5.0000 7.2000 0.2700 0.3700 5.4000 0.0260 27.0000 114.0000 0.9917 3.1300 0.8400 12.7000
5.0000 7.2000 0.2700 0.4600 18.7500 0.0520 45.0000 255.0000 1.0000 3.0400 0.5200 8.9000
5.0000 7.2000 0.2700 0.7400 12.5000 0.0370 47.0000 156.0000 0.9981 3.0400 0.4400 8.7000
5.0000 7.2000 0.2800 0.3800 2.0000 0.0520 23.0000 156.0000 0.9912 3.1300 0.5200 11.1000
5.0000 7.2000 0.2900 0.1800 8.2000 0.0420 41.0000 180.0000 0.9964 3.1600 0.4900 9.1000
5.0000 7.2000 0.2900 0.2000 7.7000 0.0460 51.0000 174.0000 0.9958 3.1600 0.5200 9.5000
5.0000 7.2000 0.2900 0.5300 18.1500 0.0470 59.0000 182.0000 0.9992 3.0900 0.5200 9.6000
5.0000 7.2000 0.3000 0.3000 8.7000 0.0220 14.0000 111.0000 0.9958 3.1100 0.6100 10.6000
5.0000 7.2000 0.3100 0.2400 1.4000 0.0570 17.0000 117.0000 0.9928 3.1600 0.3500 10.5000
5.0000 7.2000 0.3100 0.2600 7.3000 0.0500 37.0000 157.0000 0.9962 3.0900 0.4300 9.0000
5.0000 7.2000 0.3100 0.3500 7.2000 0.0460 45.0000 178.0000 0.9955 3.1400 0.5300 9.7000
5.0000 7.2000 0.3100 0.5000 13.3000 0.0560 68.0000 195.0000 0.9982 3.0100 0.4700 9.2000
5.0000 7.2000 0.3400 0.2300 8.9000 0.1050 22.0000 155.0000 0.9969 3.0100 0.5800 9.5000
5.0000 7.2000 0.3400 0.2800 10.4000 0.1080 43.0000 187.0000 0.9974 2.9600 0.5700 9.4000
5.0000 7.2000 0.3400 0.3000 8.4000 0.0510 40.0000 167.0000 0.9976 3.4800 0.6200 9.7000
5.0000 7.2000 0.3400 0.3400 12.6000 0.0480 7.0000 41.0000 0.9942 3.1900 0.4000 11.7000
5.0000 7.2000 0.3900 0.6200 11.0000 0.0470 66.0000 178.0000 0.9976 3.1600 0.5000 8.7000
5.0000 7.2000 0.4000 0.2400 8.5000 0.0550 45.0000 151.0000 0.9963 3.2000 0.5200 9.2000
5.0000 7.2000 0.4000 0.4900 1.1000 0.0480 11.0000 138.0000 0.9929 3.0100 0.4200 9.3000
5.0000 7.2000 0.4300 0.2400 6.7000 0.0580 40.0000 163.0000 0.9950 3.2000 0.4100 9.9000
5.0000 7.2000 0.4600 0.6500 10.4000 0.0500 76.0000 192.0000 0.9976 3.1600 0.4200 8.7000
5.0000 7.2000 0.4700 0.1600 5.9000 0.0480 14.0000 125.0000 0.9943 3.0900 0.4900 9.8000
5.0000 7.2000 0.4700 0.6500 8.3000 0.0830 27.0000 182.0000 0.9964 3.0000 0.3500 9.2000
5.0000 7.2000 0.5100 0.2400 10.0000 0.0930 35.0000 197.0000 0.9981 3.4100 0.4700 9.0000
5.0000 7.2000 0.5850 0.2000 10.4000 0.0860 17.0000 94.0000 0.9968 3.1300 0.4000 9.4000
5.0000 7.2000 0.6000 0.2000 9.9000 0.0700 21.0000 174.0000 0.9971 3.0300 0.5400 9.1000
5.0000 7.3000 0.1500 0.4000 2.0000 0.0500 24.0000 92.0000 0.9932 3.1400 0.4500 10.5000
5.0000 7.3000 0.2200 0.3700 15.5000 0.0480 70.0000 203.0000 0.9990 3.2500 0.7700 9.4000
5.0000 7.3000 0.2300 0.3400 9.3000 0.0520 19.0000 86.0000 0.9957 3.0400 0.5600 10.0000
5.0000 7.3000 0.2400 0.3400 7.5000 0.0480 29.0000 152.0000 0.9962 3.1000 0.5400 9.0000
5.0000 7.3000 0.2400 0.3900 17.9500 0.0570 45.0000 149.0000 0.9999 3.2100 0.3600 8.6000
5.0000 7.3000 0.2400 0.3900 3.6000 0.0240 35.0000 116.0000 0.9928 3.1700 0.5100 10.9000
5.0000 7.3000 0.2400 0.4100 13.6000 0.0500 41.0000 178.0000 0.9988 3.3700 0.4300 9.7000
5.0000 7.3000 0.2500 0.2600 7.2000 0.0480 52.0000 207.0000 0.9959 3.1200 0.3700 9.2000
5.0000 7.3000 0.2500 0.2900 7.5000 0.0490 38.0000 158.0000 0.9965 3.4300 0.3800 9.6000
5.0000 7.3000 0.2500 0.3900 6.4000 0.0340 8.0000 84.0000 0.9942 3.1800 0.4600 11.5000
5.0000 7.3000 0.2600 0.2400 1.7000 0.0500 10.0000 112.0000 0.9929 3.1100 0.4300 9.9000
5.0000 7.3000 0.2700 0.3900 6.7000 0.0640 28.0000 188.0000 0.9958 3.2900 0.3000 9.7000
5.0000 7.3000 0.2800 0.3500 1.6000 0.0540 31.0000 148.0000 0.9918 3.1800 0.4700 10.7000
5.0000 7.3000 0.2800 0.3700 1.2000 0.0390 26.0000 99.0000 0.9920 3.0100 0.6200 10.8000
5.0000 7.3000 0.2800 0.4300 1.7000 0.0800 21.0000 123.0000 0.9905 3.1900 0.4200 12.8000
5.0000 7.3000 0.2900 0.3700 8.3000 0.0440 45.0000 227.0000 0.9966 3.1200 0.4700 9.0000
5.0000 7.3000 0.3000 0.2500 2.5000 0.0450 32.0000 122.0000 0.9933 3.1800 0.5400 10.3000
5.0000 7.3000 0.3000 0.7400 13.5000 0.0390 46.0000 165.0000 0.9982 3.0200 0.4000 8.7000
5.0000 7.3000 0.3100 0.2500 6.6500 0.0320 30.0000 138.0000 0.9924 2.9000 0.3700 11.1000
5.0000 7.3000 0.3100 0.6900 10.2000 0.0410 58.0000 160.0000 0.9977 3.0600 0.4500 8.6000
5.0000 7.3000 0.3200 0.2300 13.7000 0.0500 49.0000 197.0000 0.9985 3.2000 0.4600 8.7000
5.0000 7.3000 0.3200 0.2500 7.2000 0.0560 47.0000 180.0000 0.9961 3.0800 0.4700 8.8000
5.0000 7.3000 0.3200 0.2900 1.5000 0.0380 32.0000 144.0000 0.9930 3.2000 0.5500 10.8000
5.0000 7.3000 0.3200 0.3500 1.4000 0.0500 8.0000 163.0000 0.9924 3.2400 0.4200 10.7000
5.0000 7.3000 0.3200 0.4800 13.3000 0.0600 57.0000 196.0000 0.9982 3.0400 0.5000 9.2000
5.0000 7.3000 0.3300 0.2200 1.4000 0.0410 40.0000 177.0000 0.9929 3.1400 0.4800 9.9000
5.0000 7.3000 0.3400 0.2100 3.2000 0.0500 14.0000 136.0000 0.9936 3.2500 0.4400 10.2000
5.0000 7.3000 0.3400 0.2200 1.4000 0.0440 43.0000 176.0000 0.9929 3.1400 0.4600 9.9000
5.0000 7.3000 0.3500 0.6700 8.3000 0.0530 10.0000 100.0000 0.9959 3.1900 0.5000 10.9000
5.0000 7.3000 0.3600 0.3400 14.8000 0.0570 46.0000 173.0000 0.9975 3.1400 0.5700 10.2000
5.0000 7.3000 0.3700 0.1600 14.9000 0.0480 59.0000 240.0000 0.9990 3.1300 0.4500 8.9000
5.0000 7.3000 0.5100 0.2600 3.3000 0.0900 7.0000 135.0000 0.9944 3.0100 0.5200 8.8000
5.0000 7.3000 0.8150 0.0900 11.4000 0.0440 45.0000 204.0000 0.9971 3.1500 0.4600 9.0000
5.0000 7.4000 0.1600 0.3100 6.8500 0.0590 31.0000 131.0000 0.9952 3.2900 0.3400 9.7000
5.0000 7.4000 0.1800 0.3000 8.8000 0.0640 26.0000 103.0000 0.9961 2.9400 0.5600 9.3000
5.0000 7.4000 0.1800 0.4000 1.6000 0.0470 22.0000 102.0000 0.9937 3.2800 0.4400 10.7000
5.0000 7.4000 0.2000 0.3500 6.1000 0.0250 10.0000 40.0000 0.9924 2.7900 0.5200 10.9000
5.0000 7.4000 0.2100 0.3000 7.9000 0.0390 14.0000 118.0000 0.9942 2.9600 0.3400 10.4000
5.0000 7.4000 0.2100 0.8000 12.3000 0.0380 77.0000 183.0000 0.9978 2.9500 0.4800 9.0000
5.0000 7.4000 0.2200 0.2800 9.0000 0.0460 22.0000 121.0000 0.9947 3.1000 0.5500 10.8000
5.0000 7.4000 0.2200 0.3300 2.0000 0.0450 31.0000 101.0000 0.9931 3.4200 0.5500 11.4000
5.0000 7.4000 0.2300 0.3800 8.6000 0.0520 41.0000 150.0000 0.9953 3.0600 0.4600 10.3000
5.0000 7.4000 0.2400 0.2900 10.1000 0.0500 21.0000 105.0000 0.9962 3.1300 0.3500 9.5000
5.0000 7.4000 0.2400 0.3100 8.4000 0.0450 52.0000 183.0000 0.9963 3.0900 0.3200 8.8000
5.0000 7.4000 0.2500 0.3700 13.5000 0.0600 52.0000 192.0000 0.9975 3.0000 0.4400 9.1000
5.0000 7.4000 0.2500 0.4900 1.1000 0.0420 35.0000 156.0000 0.9917 3.1300 0.5500 11.3000
5.0000 7.4000 0.2600 0.3700 9.4000 0.0470 42.0000 147.0000 0.9982 3.4600 0.7200 10.0000
5.0000 7.4000 0.2700 0.2600 11.8000 0.0530 55.0000 173.0000 0.9970 3.1100 0.6000 9.8000
5.0000 7.4000 0.2700 0.2800 1.8000 0.0400 45.0000 121.0000 0.9904 3.0200 0.4000 11.9000
5.0000 7.4000 0.2800 0.2500 11.9000 0.0530 25.0000 148.0000 0.9976 3.1000 0.6200 9.2000
5.0000 7.4000 0.2800 0.3600 14.6000 0.0480 35.0000 161.0000 0.9968 3.1400 0.5600 10.6000
5.0000 7.4000 0.2800 0.4200 19.8000 0.0660 53.0000 195.0000 1.0000 2.9600 0.4400 9.1000
5.0000 7.4000 0.2800 0.5000 12.1000 0.0490 48.0000 122.0000 0.9973 3.0100 0.4400 9.0000
5.0000 7.4000 0.2900 0.3100 1.7000 0.0350 23.0000 110.0000 0.9926 3.0700 0.3800 10.9000
5.0000 7.4000 0.2900 0.4800 12.8000 0.0370 61.5000 182.0000 0.9981 3.0200 0.3400 8.8000
5.0000 7.4000 0.3000 0.3200 1.7000 0.0300 23.0000 128.0000 0.9929 3.1700 0.6600 10.9000
5.0000 7.4000 0.3100 0.2600 8.6000 0.0480 47.0000 206.0000 0.9964 3.2600 0.3600 9.1000
5.0000 7.4000 0.3100 0.4800 14.2000 0.0420 62.0000 204.0000 0.9983 3.0600 0.5900 9.4000
5.0000 7.4000 0.3100 0.7400 10.7000 0.0390 51.0000 147.0000 0.9977 3.0200 0.4300 8.7000
5.0000 7.4000 0.3200 0.2200 11.7000 0.0350 44.0000 150.0000 0.9958 3.1000 0.4500 10.4000
5.0000 7.4000 0.3200 0.2200 1.7000 0.0510 50.0000 179.0000 0.9955 3.2800 0.6900 8.9000
5.0000 7.4000 0.3200 0.2700 12.9000 0.0400 60.0000 221.0000 0.9983 3.0500 0.6600 9.4000
5.0000 7.4000 0.3200 0.2700 1.4000 0.0490 38.0000 173.0000 0.9933 3.0300 0.5200 9.3000
5.0000 7.4000 0.3300 0.2600 15.6000 0.0490 67.0000 210.0000 0.9991 3.0600 0.6800 9.5000
5.0000 7.4000 0.3300 0.4400 7.6000 0.0500 40.0000 227.0000 0.9968 3.1200 0.5200 9.0000
5.0000 7.4000 0.3400 0.2800 12.1000 0.0490 31.0000 149.0000 0.9968 3.2200 0.4900 10.3000
5.0000 7.4000 0.3500 0.2400 6.0000 0.0420 28.0000 123.0000 0.9930 3.1400 0.4400 11.3000
5.0000 7.4000 0.3500 0.3100 17.9500 0.0620 42.0000 187.0000 1.0002 3.2700 0.6400 9.1000
5.0000 7.4000 0.3700 0.2600 9.6000 0.0500 33.0000 134.0000 0.9961 3.1300 0.4600 10.4000
5.0000 7.4000 0.3800 0.2700 7.5000 0.0410 24.0000 160.0000 0.9953 3.1700 0.4300 10.0000
5.0000 7.4000 0.3800 0.3400 8.3000 0.0520 44.0000 168.0000 0.9963 3.1100 0.5200 9.2000
5.0000 7.4000 0.3900 0.2300 7.0000 0.0330 29.0000 126.0000 0.9940 3.1400 0.4200 10.5000
5.0000 7.4000 0.4100 0.3400 4.7000 0.0420 19.0000 127.0000 0.9953 3.2500 0.4200 10.4000
5.0000 7.4000 0.4100 0.6600 10.8000 0.0510 77.0000 194.0000 0.9976 3.0500 0.4600 8.7000
5.0000 7.4000 0.4400 0.2000 11.5000 0.0490 44.0000 157.0000 0.9980 3.2700 0.4400 9.0000
5.0000 7.4000 0.5600 0.0900 1.5000 0.0710 19.0000 117.0000 0.9950 3.2200 0.5300 9.8000
5.0000 7.4000 0.6400 0.4700 14.1500 0.1680 42.0000 185.0000 0.9984 2.9000 0.4900 9.3000
5.0000 7.5000 0.1500 0.3800 1.8000 0.0540 19.0000 101.0000 0.9946 3.2400 0.4400 10.0000
5.0000 7.5000 0.1700 0.3400 1.4000 0.0350 13.0000 102.0000 0.9918 3.0500 0.7400 11.0000
5.0000 7.5000 0.1700 0.3700 1.5000 0.0600 18.0000 75.0000 0.9936 3.5400 0.8800 10.7000
5.0000 7.5000 0.1700 0.7100 11.8000 0.0380 52.0000 148.0000 0.9980 3.0300 0.4600 8.9000
5.0000 7.5000 0.1800 0.7200 9.6000 0.0390 53.0000 151.0000 0.9980 3.0300 0.4600 8.9000
5.0000 7.5000 0.1900 0.4900 1.8000 0.0550 19.0000 110.0000 0.9946 3.3300 0.4400 9.9000
5.0000 7.5000 0.2000 0.4100 1.2000 0.0500 26.0000 131.0000 0.9913 3.1900 0.5200 11.1000
5.0000 7.5000 0.2000 0.4700 16.9000 0.0520 51.0000 188.0000 0.9994 3.0900 0.6200 9.3000
5.0000 7.5000 0.2000 0.4900 1.3000 0.0310 8.0000 97.0000 0.9918 3.0600 0.6200 11.1000
5.0000 7.5000 0.2100 0.6800 10.9000 0.0450 38.0000 133.0000 0.9978 3.0000 0.3600 8.7000
5.0000 7.5000 0.2200 0.2900 4.8000 0.0500 33.0000 87.0000 0.9940 3.1400 0.4200 9.9000
5.0000 7.5000 0.2300 0.3000 1.2000 0.0300 27.0000 80.0000 0.9919 3.0500 0.6800 10.5000
5.0000 7.5000 0.2300 0.3500 17.8000 0.0580 128.0000 212.0000 1.0024 3.4400 0.4300 8.9000
5.0000 7.5000 0.2300 0.3600 7.0000 0.0360 43.0000 161.0000 0.9938 3.0400 0.3200 11.0000
5.0000 7.5000 0.2300 0.6800 11.0000 0.0470 37.0000 133.0000 0.9978 2.9900 0.3800 8.8000
5.0000 7.5000 0.2400 0.3100 13.0000 0.0490 46.0000 217.0000 0.9985 3.0800 0.5300 8.8000
5.0000 7.5000 0.2400 0.6200 10.6000 0.0450 51.0000 153.0000 0.9978 3.1600 0.4400 8.8000
5.0000 7.5000 0.2600 0.2600 18.3500 0.0840 33.0000 139.0000 1.0011 3.1700 0.3900 8.8000
5.0000 7.5000 0.2600 0.5200 13.2000 0.0470 64.0000 179.0000 0.9982 3.1000 0.4600 9.0000
5.0000 7.5000 0.2700 0.3100 17.7000 0.0510 33.0000 173.0000 0.9990 3.0900 0.6400 10.2000
5.0000 7.5000 0.2700 0.3100 5.8000 0.0570 131.0000 313.0000 0.9946 3.1800 0.5900 10.5000
5.0000 7.5000 0.2700 0.3600 7.0000 0.0360 45.0000 164.0000 0.9939 3.0300 0.3300 11.0000
5.0000 7.5000 0.2700 0.7900 11.9500 0.0400 51.0000 159.0000 0.9984 2.9800 0.4400 8.7000
5.0000 7.5000 0.2800 0.4100 1.3000 0.0440 11.0000 126.0000 0.9929 3.2800 0.4500 10.3000
5.0000 7.5000 0.2800 0.7800 12.1000 0.0410 53.0000 161.0000 0.9984 2.9800 0.4400 8.7000
5.0000 7.5000 0.2900 0.2400 9.9000 0.0580 25.0000 115.0000 0.9957 3.1500 0.4600 10.9000
5.0000 7.5000 0.2900 0.3100 8.9500 0.0550 20.0000 151.0000 0.9968 3.0800 0.5400 9.3000
5.0000 7.5000 0.2900 0.3600 15.7000 0.0500 29.0000 124.0000 0.9968 3.0600 0.5400 10.4000
5.0000 7.5000 0.3000 0.2100 6.5500 0.0260 33.0000 143.0000 0.9924 2.9200 0.3500 11.1000
5.0000 7.5000 0.3000 0.3200 1.4000 0.0320 31.0000 161.0000 0.9915 2.9500 0.4200 10.5000
5.0000 7.5000 0.3000 0.7100 1.3000 0.1600 44.0000 149.0000 0.9948 3.0800 0.4200 8.9000
5.0000 7.5000 0.3050 0.4000 18.9000 0.0590 44.0000 170.0000 1.0000 2.9900 0.4600 9.0000
5.0000 7.5000 0.3100 0.5100 14.8000 0.0390 62.0000 204.0000 0.9982 3.0600 0.6000 9.5000
5.0000 7.5000 0.3200 0.2600 1.8000 0.0420 13.0000 133.0000 0.9938 3.0700 0.3800 9.5000
5.0000 7.5000 0.3200 0.3700 1.2000 0.0480 22.0000 184.0000 0.9938 3.0900 0.4300 9.3000
5.0000 7.5000 0.3300 0.3800 8.7000 0.1260 49.0000 199.0000 0.9971 2.9800 0.5700 9.4000
5.0000 7.5000 0.3300 0.3900 12.4000 0.0650 29.0000 119.0000 0.9974 3.1600 0.3900 9.4000
5.0000 7.5000 0.3300 0.4800 19.4500 0.0480 55.0000 243.0000 1.0010 2.9500 0.4000 8.8000
5.0000 7.5000 0.3500 0.4800 12.4000 0.0560 61.0000 176.5000 0.9980 2.9700 0.5200 8.8000
5.0000 7.5000 0.4100 0.2300 14.8000 0.0540 28.0000 174.0000 0.9990 3.1800 0.4900 9.7000
5.0000 7.5000 0.4200 0.1400 10.7000 0.0460 18.0000 95.0000 0.9959 3.2200 0.3300 10.7000
5.0000 7.5000 0.7050 0.1000 13.0000 0.0440 44.0000 214.0000 0.9974 3.1000 0.5000 9.1000
5.0000 7.6000 0.1300 0.3400 9.3000 0.0620 40.0000 126.0000 0.9966 3.2100 0.3900 9.6000
5.0000 7.6000 0.1500 0.4000 1.3000 0.0360 24.0000 112.0000 0.9932 3.1400 0.7600 10.0000
5.0000 7.6000 0.1700 0.3600 4.5000 0.0420 26.0000 102.0000 0.9943 3.0900 0.4700 9.5000
5.0000 7.6000 0.1700 0.4500 11.2000 0.0540 56.0000 137.0000 0.9970 3.1500 0.4700 10.0000
5.0000 7.6000 0.1800 0.3600 2.4000 0.0490 38.0000 123.0000 0.9960 3.6000 0.4600 10.3000
5.0000 7.6000 0.1800 0.4900 18.0500 0.0460 36.0000 158.0000 0.9996 3.0600 0.4100 9.2000
5.0000 7.6000 0.1900 0.4100 1.1000 0.0400 38.0000 143.0000 0.9907 2.9200 0.4200 11.4000
5.0000 7.6000 0.2000 0.2600 4.5000 0.0860 37.0000 133.0000 0.9963 3.1500 0.4200 9.2000
5.0000 7.6000 0.2000 0.6800 12.9000 0.0420 56.0000 160.0000 0.9984 3.0500 0.4100 8.7000
5.0000 7.6000 0.2100 0.4900 2.5000 0.0470 20.0000 130.0000 0.9918 3.1500 0.4800 11.1000
5.0000 7.6000 0.2300 0.3400 1.6000 0.0430 24.0000 129.0000 0.9930 3.1200 0.7000 10.4000
5.0000 7.6000 0.2300 0.4000 5.2000 0.0660 14.0000 91.0000 0.9949 3.1700 0.8000 9.7000
5.0000 7.6000 0.2300 0.6400 12.9000 0.0330 54.0000 170.0000 0.9980 3.0000 0.5300 8.8000
5.0000 7.6000 0.2500 0.3400 1.3000 0.0560 34.0000 176.0000 0.9943 3.1000 0.5100 9.5000
5.0000 7.6000 0.2600 0.4700 1.6000 0.0680 5.0000 55.0000 0.9944 3.1000 0.4500 9.6000
5.0000 7.6000 0.2600 0.5800 7.9000 0.0410 62.0000 180.0000 0.9966 3.0700 0.3800 9.0000
5.0000 7.6000 0.2700 0.2400 3.8000 0.0580 19.0000 115.0000 0.9958 3.1500 0.4500 8.9000
5.0000 7.6000 0.2700 0.2900 2.5000 0.0590 37.0000 115.0000 0.9933 3.0900 0.3700 9.8000
5.0000 7.6000 0.2700 0.3200 1.2000 0.0430 23.0000 72.0000 0.9924 3.0600 0.6800 10.5000
5.0000 7.6000 0.2700 0.3300 2.0000 0.0590 19.0000 175.0000 0.9944 3.2200 0.5600 9.9000
5.0000 7.6000 0.2800 0.1700 1.6000 0.0460 28.0000 117.0000 0.9929 3.0800 0.4300 10.0000
5.0000 7.6000 0.2800 0.4900 20.1500 0.0600 30.0000 145.0000 1.0020 3.0100 0.4400 8.5000
5.0000 7.6000 0.2850 0.3200 14.6000 0.0630 32.0000 201.0000 0.9980 3.0000 0.4500 9.2000
5.0000 7.6000 0.2900 0.2600 6.5000 0.0420 32.0000 160.0000 0.9944 3.1400 0.4700 10.7000
5.0000 7.6000 0.2900 0.2900 4.4000 0.0510 26.0000 146.0000 0.9939 3.1600 0.3900 10.2000
5.0000 7.6000 0.2900 0.4200 1.3000 0.0350 18.0000 86.0000 0.9908 2.9900 0.3900 11.3000
5.0000 7.6000 0.3000 0.2500 4.3000 0.0540 22.0000 111.0000 0.9956 3.1200 0.4900 9.2000
5.0000 7.6000 0.3000 0.3700 1.6000 0.0870 27.0000 177.0000 0.9944 3.0900 0.5000 9.8000
5.0000 7.6000 0.3000 0.3800 2.1000 0.0430 10.0000 98.0000 0.9930 3.1700 0.6500 11.0000
5.0000 7.6000 0.3000 0.4000 2.2000 0.0540 29.0000 175.0000 0.9944 3.1900 0.5300 9.8000
5.0000 7.6000 0.3100 0.2600 1.7000 0.0730 40.0000 157.0000 0.9938 3.1000 0.4600 9.8000
5.0000 7.6000 0.3100 0.2900 10.5000 0.0400 21.0000 145.0000 0.9966 3.0400 0.3500 9.4000
5.0000 7.6000 0.3200 0.3400 18.3500 0.0540 44.0000 197.0000 1.0008 3.2200 0.5500 9.0000
5.0000 7.6000 0.3200 0.3500 1.6000 0.0920 24.0000 138.0000 0.9944 3.1900 0.4400 9.8000
5.0000 7.6000 0.3200 0.5800 16.7500 0.0500 43.0000 163.0000 0.9999 3.1500 0.5400 9.2000
5.0000 7.6000 0.3300 0.4100 13.7000 0.0450 44.0000 197.0000 0.9989 3.1800 0.6400 9.1000
5.0000 7.6000 0.3450 0.2600 1.9000 0.0430 15.0000 134.0000 0.9936 3.0800 0.3800 9.5000
5.0000 7.6000 0.3500 0.4600 14.7000 0.0470 33.0000 151.0000 0.9971 3.0300 0.5300 10.3000
5.0000 7.6000 0.3500 0.4700 13.3000 0.0370 42.0000 116.0000 0.9982 3.0400 0.5000 9.2000
5.0000 7.6000 0.3600 0.4800 13.5000 0.0380 44.0000 116.0000 0.9982 3.0400 0.4800 9.2000
5.0000 7.6000 0.3600 0.4900 11.3000 0.0460 87.0000 221.0000 0.9984 3.0100 0.4300 9.2000
